svm_type c_svc
kernel_type polynomial
degree 1
gamma 0.0175439
coef0 0.01
nr_class 2
total_sv 1050
rho -1.25506
label 0 1
nr_sv 535 515
SV
1 1:0 2:0 3:0 4:0 5:0 6:0 7:0 8:0 9:0 10:0 11:0 12:0 13:0 14:0 15:0 16:0 17:0 18:0 19:0 20:0 21:0 22:0 23:0 24:0 25:0 26:0 27:0 28:0 29:0 30:0 31:0 32:0 33:0 34:0 35:0 36:0 37:0 38:0 39:0 40:0 41:0 42:0 43:0 44:0 45:0 46:0 47:0 48:0 49:0 50:0 51:0 52:1.234 53:0 54:0 55:3 56:5 57:15 
1 1:0 2:0 3:0 4:0 5:2.38 6:0 7:0 8:0 9:0 10:0 11:0 12:0 13:0 14:0 15:0 16:0 17:0 18:0 19:2.38 20:0 21:2.38 22:0 23:0 24:0 25:0 26:0 27:0 28:0 29:0 30:0 31:0 32:0 33:0 34:0 35:0 36:0 37:0 38:0 39:0 40:0 41:0 42:0 43:0 44:0 45:0 46:0 47:0 48:0 49:0 50:0 51:0 52:0 53:0 54:0 55:1.5 56:4 57:15 
1 1:0.69 2:0 3:0.69 4:0 5:0 6:0 7:0 8:0 9:0 10:0.69 11:0 12:0 13:0 14:0 15:0 16:1.38 17:0 18:0 19:1.38 20:0 21:1.38 22:0 23:0 24:0 25:0 26:0 27:0 28:0 29:0 30:0 31:0 32:0 33:0 34:0 35:0 36:0 37:0 38:0 39:0 40:0 41:0 42:0 43:0 44:0 45:0 46:0 47:0 48:0 49:0 50:0 51:0 52:2.378 53:0 54:0 55:3.315 56:37 57:126 
1 1:0 2:0.36 3:0 4:0 5:0 6:0 7:0 8:0 9:0 10:0.73 11:0 12:0 13:0 14:0 15:0 16:0 17:0 18:0 19:1.46 20:0 21:0.36 22:10.25 23:0 24:0 25:0 26:0 27:0 28:0 29:0 30:0 31:0 32:0 33:0 34:0 35:0 36:0 37:0 38:0 39:0 40:0 41:0 42:0 43:0 44:0 45:0 46:0 47:0 48:0 49:3.838 50:0 51:0 52:0.062 53:0 54:0.503 55:6.912 56:43 57:394 
1 1:0 2:0 3:0 4:0 5:0 6:0 7:0 8:0 9:0 10:0 11:0 12:1.75 13:0 14:0 15:0 16:0 17:0 18:0 19:2.63 20:0 21:3.5 22:0 23:0 24:0 25:0 26:0 27:0 28:0 29:0 30:0 31:0 32:0 33:0 34:0 35:0 36:0 37:0 38:0 39:0 40:0 41:0 42:0 43:0 44:0 45:0 46:0 47:0 48:0 49:0 50:0 51:0 52:0 53:0 54:0 55:1.235 56:5 57:21 
1 1:0 2:0 3:0 4:0 5:0 6:0 7:0 8:0 9:0 10:0 11:0 12:0 13:0 14:0 15:0 16:0 17:0 18:0 19:0 20:0 21:0 22:0 23:0 24:0 25:0 26:0 27:0 28:0 29:0 30:0 31:0 32:0 33:0 34:0 35:0 36:0 37:0 38:0 39:0 40:0 41:0 42:0 43:0 44:0 45:0.68 46:0 47:0 48:0 49:0 50:0.112 51:0 52:0 53:0.903 54:0 55:2.285 56:14 57:80 
1 1:0 2:0 3:0.41 4:0 5:0 6:0 7:0 8:0 9:0 10:0.41 11:0 12:1.25 13:0 14:0 15:0 16:0 17:0 18:0 19:2.91 20:0 21:0.41 22:0 23:0 24:0 25:0 26:0 27:0 28:0 29:0 30:0 31:0 32:0 33:0 34:0 35:0 36:0 37:0 38:0 39:0 40:0 41:0 42:0 43:0 44:0 45:0 46:0 47:0 48:0 49:0 50:0.184 51:0 52:0 53:0 54:0 55:1.538 56:10 57:40 
1 1:0 2:0.39 3:0 4:0 5:0 6:0 7:0 8:0 9:0.39 10:0 11:0 12:1.97 13:0.79 14:0 15:0 16:0 17:1.18 18:0 19:0.79 20:0.39 21:0 22:0 23:0 24:0 25:0.39 26:0 27:0 28:0 29:0 30:0 31:0 32:0 33:0 34:0 35:0 36:1.97 37:0 38:0 39:0 40:0 41:0 42:0 43:0 44:0 45:0 46:0 47:0.39 48:0 49:0 50:0.192 51:0 52:0.128 53:0 54:0 55:1.229 56:6 57:75 
1 1:0 2:0 3:0.9 4:0 5:0 6:0 7:0 8:0 9:0 10:0.45 11:0 12:0 13:0 14:0 15:0 16:0.45 17:0 18:0.45 19:0 20:0 21:0.9 22:0 23:0 24:0 25:0 26:0 27:0 28:0 29:0 30:0 31:0 32:0 33:0 34:0 35:0 36:0 37:0.45 38:0 39:0 40:0 41:0 42:0 43:0 44:0 45:0.45 46:0.45 47:0 48:0 49:0.056 50:0.227 51:0 52:0.056 53:0 54:0.056 55:5.8 56:70 57:290 
0.2959434589932077 1:0.3 2:0 3:0.3 4:0 5:0 6:0 7:0 8:0 9:0 10:0 11:0 12:0.3 13:0.6 14:0 15:0 16:0 17:0 18:0 19:3.03 20:0 21:1.51 22:0 23:0 24:0 25:0 26:0 27:0 28:0 29:0 30:0 31:0 32:0 33:0 34:0 35:0 36:0 37:0 38:0 39:0 40:0 41:0.6 42:0 43:0 44:0 45:1.21 46:0 47:0 48:0 49:0.055 50:0.11 51:0 52:0.055 53:0 54:0 55:1.947 56:7 57:74 
1 1:0 2:0.44 3:0.44 4:0 5:0.44 6:0 7:0.22 8:0 9:0 10:2.43 11:1.1 12:0.44 13:0 14:0 15:0 16:0 17:0 18:1.55 19:2.88 20:0 21:2.21 22:0 23:0 24:0 25:0 26:0 27:0.22 28:0 29:0 30:0 31:0 32:0 33:0 34:0 35:0 36:0 37:0 38:0 39:0 40:0.22 41:0 42:0 43:0 44:0 45:0 46:0 47:0 48:0 49:0 50:0.036 51:0 52:0.073 53:0.146 54:0.036 55:2.574 56:22 57:224 
1 1:2 2:0 3:0 4:0 5:0 6:0 7:0 8:0 9:0 10:0 11:2 12:2 13:0 14:0 15:0 16:0 17:0 18:0 19:2 20:0 21:8 22:0 23:0 24:0 25:0 26:0 27:0 28:0 29:0 30:0 31:0 32:0 33:0 34:0 35:0 36:0 37:0 38:0 39:0 40:0 41:0 42:0 43:0 44:0 45:0 46:0 47:0 48:0 49:0 50:0 51:0 52:0 53:0 54:0 55:5.888 56:29 57:53 
1 1:0 2:0 3:0 4:0 5:0 6:0 7:0 8:0 9:0 10:0 11:0 12:0 13:0 14:0 15:0 16:0 17:0 18:0 19:0 20:0 21:0 22:0 23:0 24:0 25:0 26:0 27:0 28:0 29:0 30:0 31:0 32:0 33:0 34:0 35:0 36:0 37:0 38:0 39:0 40:0 41:0 42:0 43:0 44:0 45:0 46:0 47:0 48:0 49:0 50:0 51:0 52:0.757 53:0 54:0 55:1.222 56:4 57:22 
1 1:0 2:0 3:0.74 4:0 5:0 6:0 7:0 8:0 9:0 10:0 11:0 12:0.24 13:0 14:0 15:0 16:0.49 17:0 18:0.49 19:2.71 20:0 21:1.23 22:0 23:0 24:0 25:0 26:0 27:0 28:0 29:0 30:0 31:0 32:0 33:0 34:0 35:0 36:0 37:0.24 38:0 39:0 40:0 41:0 42:0 43:0 44:0 45:0.49 46:0 47:0 48:0 49:0.036 50:0.147 51:0 52:0.147 53:0 54:0 55:2.587 56:55 57:282 
1 1:0 2:0 3:0 4:0 5:0 6:0 7:3.07 8:0 9:0 10:0 11:0 12:0 13:0 14:0 15:0 16:0 17:0 18:0 19:3.07 20:0 21:0 22:0 23:0 24:0 25:0 26:0 27:0 28:0 29:0 30:0 31:0 32:0 33:0 34:0 35:0 36:0 37:0 38:0 39:0 40:0 41:0 42:0 43:0 44:0 45:0 46:0 47:0 48:0 49:0 50:0 51:0 52:0.251 53:0 54:0 55:3.214 56:12 57:45 
1 1:0 2:0 3:0 4:0 5:0 6:0 7:0 8:0 9:0 10:0 11:0 12:0 13:0 14:0 15:0 16:0 17:0 18:0 19:4.34 20:0 21:0 22:0 23:0 24:0 25:0 26:0 27:0 28:4.34 29:0 30:0 31:0 32:0 33:0 34:0 35:0 36:0 37:0 38:0 39:0 40:0 41:0 42:0 43:0 44:0 45:0 46:0 47:0 48:0 49:0 50:0.735 51:0 52:0.735 53:0 54:0 55:2.571 56:10 57:18 
1 1:0 2:0 3:0 4:0 5:0.9 6:0 7:0 8:0 9:0 10:0 11:0 12:0 13:0 14:0 15:0 16:0 17:0 18:0 19:2.7 20:0 21:0.9 22:0 23:0 24:0 25:0 26:0 27:0 28:0 29:0 30:0 31:0 32:0 33:0 34:0 35:0 36:0 37:1.8 38:0 39:0 40:0 41:0 42:0 43:1.8 44:0 45:0.9 46:0 47:0 48:0 49:0 50:0 51:0 52:0.281 53:0 54:0 55:1.551 56:13 57:76 
1 1:0 2:0 3:0 4:0 5:0 6:0 7:0 8:0 9:0 10:0 11:0 12:0 13:0 14:0 15:0 16:0 17:0 18:0 19:0 20:0 21:0 22:0 23:0 24:0 25:0 26:0 27:0 28:0 29:0 30:0 31:0 32:0 33:0 34:0 35:0 36:0 37:0 38:0 39:0 40:0 41:0 42:0 43:0 44:0 45:0 46:0 47:0 48:0 49:0 50:0 51:0 52:0 53:0 54:0 55:2.666 56:6 57:8 
1 1:0 2:0 3:0 4:0 5:0 6:0 7:2.22 8:2.22 9:0 10:0 11:0 12:0 13:0 14:0 15:0 16:0 17:0 18:0 19:0 20:0 21:0 22:0 23:0 24:0 25:0 26:0 27:0 28:0 29:0 30:0 31:0 32:0 33:0 34:0 35:0 36:0 37:0 38:0 39:0 40:0 41:0 42:0 43:0 44:0 45:0 46:0 47:0 48:0 49:0 50:0.665 51:0 52:0 53:0.665 54:0 55:4.571 56:25 57:64 
1 1:0.16 2:0.08 3:0 4:0 5:0 6:0 7:0 8:0 9:0.16 10:0.33 11:0 12:0.67 13:0 14:0 15:0.08 16:0 17:0.5 18:0.33 19:0.58 20:0.16 21:0.42 22:0 23:0 24:0.08 25:1.34 26:0.58 27:0 28:0 29:0 30:0.08 31:0 32:0 33:0 34:0 35:0 36:1.09 37:1.34 38:0 39:0.16 40:0 41:0 42:0 43:0 44:0.08 45:0 46:0 47:0 48:0 49:0.084 50:0.408 51:0.06 52:0 53:0.012 54:0 55:4.179 56:104 57:1655 
1 1:0 2:0 3:0 4:0 5:0 6:0.44 7:0 8:0 9:0 10:0 11:0 12:0 13:0 14:0 15:0 16:0.44 17:0 18:0.44 19:0.44 20:0 21:0.44 22:0 23:0 24:0 25:0 26:0 27:0 28:0 29:0 30:0 31:0 32:0 33:0 34:0 35:0 36:0 37:0.44 38:0 39:0 40:0 41:0 42:0 43:0 44:0 45:0.44 46:0.44 47:0 48:0 49:0 50:0.175 51:0.058 52:0 53:0 54:0.058 55:8.478 56:122 57:390 
1 1:1.39 2:0 3:2.09 4:0 5:0 6:0 7:0 8:0 9:0 10:0 11:0 12:6.29 13:0 14:0 15:0 16:0.69 17:0 18:0 19:4.19 20:0.69 21:0.69 22:0 23:0 24:0 25:0 26:0 27:0 28:0 29:0 30:0 31:0 32:0 33:0 34:0 35:0 36:0 37:0 38:0 39:0.69 40:0 41:0 42:0 43:0 44:0 45:0 46:0 47:0 48:0 49:0 50:0 51:0 52:0.254 53:0 54:0 55:2 56:13 57:64 
1 1:0 2:0 3:0 4:0 5:0 6:0 7:0 8:0 9:0 10:0 11:0 12:1.53 13:0.76 14:0 15:0 16:0 17:0 18:0 19:3.07 20:0 21:0.76 22:0 23:0 24:0 25:0 26:0 27:0 28:0 29:0 30:0 31:0 32:0 33:0 34:0 35:0 36:0 37:0 38:0 39:0 40:0 41:0 42:0 43:0 44:0 45:0 46:0 47:0 48:0 49:0 50:0 51:0 52:0 53:0 54:0 55:1.444 56:6 57:26 
1 1:0 2:0 3:0 4:0 5:0 6:0 7:0 8:0 9:0 10:0 11:0 12:1.16 13:0 14:0 15:0 16:0 17:0 18:0 19:0 20:0 21:1.16 22:0 23:0 24:0 25:0 26:0 27:0 28:0 29:0 30:0 31:0 32:0 33:0 34:0 35:0 36:0 37:0 38:0 39:0 40:0 41:0 42:0 43:0 44:0 45:0 46:0 47:0 48:0 49:0 50:0 51:0 52:0 53:0 54:0 55:1.866 56:6 57:28 
1 1:0.06 2:0.04 3:0.29 4:0 5:0.08 6:0.06 7:0 8:0.13 9:0.02 10:0.11 11:0 12:0.47 13:0 14:0.02 15:0.02 16:0.13 17:0.13 18:0.08 19:0.24 20:0 21:0.17 22:0 23:0 24:0 25:0 26:0 27:0 28:0.02 29:0.02 30:0 31:0 32:0 33:1.7 34:0 35:0 36:0.22 37:0.83 38:0.02 39:0 40:0 41:0.06 42:0.04 43:0.02 44:0.06 45:0 46:0.29 47:0.02 48:0.15 49:0.032 50:0.176 51:0 52:0.003 53:0.003 54:0 55:2.201 56:79 57:2631 
1 1:0 2:1.93 3:0.77 4:0 5:0.77 6:0 7:0 8:0.38 9:0 10:0 11:0.38 12:0 13:1.54 14:0 15:0 16:0.38 17:0.38 18:1.15 19:4.24 20:0 21:6.17 22:0 23:0 24:0 25:0 26:0 27:0.38 28:0 29:0 30:0 31:0 32:0 33:0 34:0 35:0 36:0 37:0 38:0 39:0 40:0 41:0 42:0 43:0 44:0 45:0 46:0 47:0 48:0 49:0 50:0 51:0 52:0.109 53:0 54:0 55:1.043 56:4 57:95 
1 1:2 2:0 3:0 4:0 5:0 6:0 7:0 8:0 9:0 10:0 11:2 12:2 13:0 14:0 15:0 16:0 17:0 18:0 19:2 20:0 21:8 22:0 23:0 24:0 25:0 26:0 27:0 28:0 29:0 30:0 31:0 32:0 33:0 34:0 35:0 36:0 37:0 38:0 39:0 40:0 41:0 42:0 43:0 44:0 45:0 46:0 47:0 48:0 49:0 50:0 51:0 52:0 53:0 54:0 55:5.888 56:29 57:53 
1 1:0 2:0 3:0 4:0 5:7.14 6:0 7:0 8:0 9:0 10:0 11:0 12:0 13:0 14:0 15:0 16:0 17:0 18:0 19:0 20:0 21:0 22:0 23:0 24:0 25:0 26:0 27:0 28:0 29:0 30:0 31:0 32:0 33:0 34:0 35:0 36:0 37:0 38:0 39:0 40:0 41:0 42:0 43:0 44:0 45:7.14 46:0 47:0 48:0 49:0 50:0 51:0 52:0 53:0 54:0 55:1.6 56:4 57:8 
1 1:0 2:0 3:2.77 4:0 5:0 6:0 7:0 8:0 9:0 10:0 11:0 12:0 13:0 14:0 15:0 16:0 17:0 18:0 19:8.33 20:0 21:0 22:0 23:0 24:0 25:0 26:0 27:0 28:0 29:0 30:0 31:0 32:0 33:0 34:0 35:0 36:0 37:0 38:0 39:0 40:0 41:0 42:0 43:0 44:0 45:0 46:0 47:0 48:0 49:0 50:0 51:0 52:0 53:0 54:0 55:1.214 56:4 57:17 
1 1:0 2:1.36 3:0.9 4:0 5:0 6:0 7:0 8:0 9:0 10:1.81 11:0 12:0.45 13:0 14:0 15:0 16:0 17:0 18:1.81 19:0 20:0 21:3.18 22:0 23:0 24:0 25:0.45 26:0 27:0 28:0 29:0 30:0 31:0 32:0 33:0.9 34:0 35:0 36:0 37:0 38:0 39:0 40:0 41:0 42:0 43:0 44:0 45:0 46:0 47:0 48:0 49:0 50:0.199 51:0 52:0 53:0 54:0 55:3.382 56:53 57:159 
1 1:0.17 2:0 3:0.68 4:0 5:0.34 6:0.34 7:0 8:0 9:0 10:0 11:0 12:0 13:0 14:0 15:0 16:0 17:0 18:0.34 19:4.8 20:0 21:1.88 22:0 23:0 24:0 25:0 26:0 27:0 28:0 29:0 30:0 31:0 32:0 33:0 34:0 35:0 36:0 37:0 38:0 39:0 40:0 41:0 42:0 43:0 44:0 45:0.51 46:0.17 47:0 48:0 49:0 50:0.032 51:0 52:0.065 53:0 54:0 55:1.189 56:5 57:69 
1 1:0.35 2:0 3:0.71 4:0 5:0 6:0 7:0 8:0 9:0 10:0.35 11:0 12:0.71 13:0 14:0 15:0 16:0 17:0 18:0 19:7.47 20:0 21:1.06 22:0 23:0 24:0 25:0 26:0 27:0 28:0 29:0 30:0 31:0 32:0 33:0 34:0 35:0 36:0 37:0 38:0 39:0 40:0 41:0 42:0 43:0 44:0 45:0.35 46:0 47:0 48:0 49:0 50:0.067 51:0 52:0 53:0 54:0 55:1 56:1 57:40 
1 1:0 2:0.36 3:0.36 4:0 5:0 6:0 7:0 8:0 9:0 10:0.36 11:0 12:0 13:0 14:0 15:0 16:0 17:0 18:0 19:1.47 20:0 21:0.36 22:8.85 23:0 24:0 25:0 26:0 27:0 28:0 29:0 30:0 31:0 32:0 33:0 34:0 35:0 36:0 37:0 38:0 39:0 40:0 41:0 42:0 43:0 44:0 45:0 46:0 47:0 48:0 49:4.121 50:0 51:0 52:0.063 53:0 54:0.507 55:7.326 56:43 57:359 
1 1:0 2:0 3:0.49 4:0 5:0 6:0.49 7:0 8:0 9:0 10:0 11:0 12:0.99 13:0 14:0 15:0 16:0 17:0 18:0 19:2.47 20:0 21:0.99 22:0 23:0 24:0 25:0 26:0 27:0 28:0 29:0 30:0 31:0 32:0 33:0 34:0 35:0 36:0 37:0 38:0 39:0 40:0 41:0 42:0 43:0 44:0 45:0 46:0.49 47:0 48:0 49:0 50:0.093 51:0 52:0.093 53:0 54:0 55:1.275 56:4 57:51 
1 1:0 2:0 3:0 4:0 5:0.87 6:0 7:0.87 8:0 9:0 10:0 11:0 12:0 13:0 14:0 15:0 16:2.63 17:0 18:0.87 19:2.63 20:0 21:0 22:0 23:0 24:0 25:0 26:0 27:0 28:0 29:0 30:0 31:0 32:0 33:0 34:0 35:0 36:0 37:0 38:0 39:0 40:0 41:0 42:0 43:0 44:0 45:0 46:0 47:0 48:0 49:0 50:0 51:0 52:0.798 53:0.159 54:0 55:18.454 56:136 57:203 
1 1:0 2:0 3:4.54 4:0 5:0 6:0 7:0 8:0 9:0 10:0 11:0 12:0 13:0 14:0 15:0 16:0 17:0 18:0 19:4.54 20:0 21:0 22:0 23:0 24:0 25:0 26:0 27:0 28:0 29:0 30:0 31:0 32:0 33:0 34:0 35:0 36:0 37:0 38:0 39:0 40:0 41:0 42:0 43:0 44:0 45:0 46:0 47:0 48:0 49:0 50:0.645 51:0 52:0 53:0 54:0 55:1 56:1 57:7 
1 1:0.02 2:0 3:0.1 4:0 5:0.05 6:0.05 7:0 8:0.13 9:0.3 10:0 11:0 12:0.13 13:0 14:0 15:0 16:0 17:0 18:0.02 19:0.1 20:0 21:0.08 22:0 23:0 24:0 25:0.46 26:0.49 27:0.02 28:0 29:0 30:0 31:0 32:0 33:0.27 34:0 35:0 36:0 37:0.41 38:0 39:0.13 40:0 41:0 42:0 43:0 44:0 45:0 46:0 47:0 48:0 49:0.166 50:0.158 51:0.047 52:0 53:0.007 54:0 55:2.984 56:52 57:1758 
1 1:0 2:0 3:0.24 4:0 5:0.24 6:0 7:0 8:0 9:0 10:0 11:0 12:0.72 13:0 14:0 15:0 16:0.48 17:0.48 18:0 19:1.44 20:0.24 21:0.48 22:0 23:0 24:0 25:1.92 26:0 27:0 28:0 29:0 30:0 31:0 32:0 33:0 34:0 35:0 36:0 37:0 38:0 39:0 40:0 41:0 42:0 43:0 44:0 45:0 46:0 47:0 48:0 49:0 50:0 51:0 52:0 53:0 54:0 55:6.823 56:143 57:464 
0.09047697136290854 1:0 2:0 3:0 4:0 5:0 6:0 7:0 8:0 9:0 10:0 11:0 12:0 13:0 14:0 15:0 16:0 17:0 18:0 19:0 20:0 21:0 22:0 23:0 24:0 25:0 26:0 27:0 28:0 29:0 30:0 31:0 32:0 33:0 34:0 35:0 36:0 37:0 38:0 39:0 40:0 41:0 42:0 43:0 44:0 45:0 46:0 47:0 48:0 49:0 50:0 51:1.176 52:0 53:0 54:0 55:2.142 56:8 57:15 
1 1:0 2:0 3:0 4:0 5:0 6:0.77 7:0 8:0 9:0 10:0 11:0 12:0 13:0 14:0 15:0 16:0 17:0 18:0 19:7.75 20:0 21:0 22:0 23:0 24:0 25:0 26:0 27:0 28:0 29:0 30:0 31:0 32:0 33:0 34:0 35:0 36:0 37:0 38:0 39:0 40:0 41:0 42:0 43:0 44:0 45:0 46:0 47:0 48:0 49:0 50:0.156 51:0 52:0.312 53:0 54:0 55:1.08 56:2 57:27 
1 1:0.74 2:0 3:0 4:0 5:0 6:0 7:0 8:0 9:0 10:0 11:0 12:0 13:0 14:0 15:0 16:0 17:0 18:0 19:0 20:0 21:0 22:0 23:0.74 24:0 25:0 26:0 27:0 28:0 29:0 30:0 31:0 32:0 33:0 34:0 35:0 36:0 37:0.74 38:0 39:0 40:0 41:0 42:0 43:0 44:0 45:0.74 46:0 47:0 48:0 49:0.134 50:0.672 51:0 52:0 53:0 54:0 55:1.863 56:5 57:41 
1 1:0 2:0 3:0.21 4:0 5:0.21 6:0 7:0 8:0.21 9:0 10:0 11:0 12:0 13:0 14:0 15:0 16:0 17:0 18:0 19:1.94 20:0 21:0.43 22:0 23:0 24:0 25:0 26:0 27:0 28:0 29:0 30:0 31:0 32:0 33:0 34:0 35:0 36:0 37:0 38:0 39:0 40:0 41:0 42:0 43:0 44:0 45:0 46:0 47:0 48:0 49:0.079 50:0 51:0.039 52:0.119 53:0 54:0.039 55:1.086 56:3 57:101 
1 1:0 2:0 3:0.37 4:0 5:1.13 6:0 7:0 8:0 9:0 10:0.75 11:0 12:1.13 13:0 14:0 15:0 16:0 17:0 18:0 19:2.65 20:0 21:0 22:0 23:0 24:0 25:0 26:0 27:0 28:0 29:0 30:0 31:0 32:0 33:0 34:0 35:0 36:0 37:0 38:0 39:0 40:0 41:0 42:0 43:0 44:0.37 45:0 46:0 47:0 48:0 49:0 50:0 51:0 52:0 53:0 54:0 55:1.264 56:4 57:43 
1 1:0 2:0 3:0 4:0 5:1.13 6:0 7:0 8:0 9:0 10:1.13 11:0 12:0 13:0 14:0 15:0 16:0 17:0 18:1.13 19:2.27 20:0 21:3.4 22:0 23:0 24:0 25:0 26:0 27:1.13 28:0 29:0 30:0 31:0 32:0 33:0 34:0 35:0 36:0 37:0 38:0 39:0 40:0 41:0 42:1.13 43:0 44:0 45:0 46:0 47:0 48:0 49:0 50:0 51:0 52:0 53:0 54:0 55:1 56:1 57:11 
1 1:0 2:2.07 3:0 4:0 5:0 6:0 7:0 8:0 9:1.55 10:0 11:0 12:0.51 13:0 14:0 15:0 16:0 17:0 18:0 19:1.03 20:0 21:0 22:0 23:0 24:0 25:0.51 26:0 27:2.59 28:0 29:0 30:0 31:0 32:0 33:0 34:0 35:0 36:0 37:0 38:0 39:0 40:0 41:0 42:0 43:0 44:0 45:0 46:0 47:0 48:0 49:0 50:0.07 51:0 52:0 53:0.141 54:0.211 55:25.812 56:104 57:413 
1 1:0 2:0 3:0 4:0 5:0 6:0 7:0 8:0 9:0.83 10:1.66 11:0 12:0 13:0 14:0 15:0 16:0 17:0 18:0 19:0.83 20:0 21:2.5 22:0 23:0 24:0 25:0 26:0 27:0 28:0 29:0 30:0 31:0 32:0 33:0 34:0 35:0 36:0 37:0 38:0 39:0 40:4.16 41:0 42:0 43:0 44:0 45:0 46:0 47:0 48:0 49:0 50:0.118 51:0 52:0 53:0 54:0 55:1.475 56:11 57:59 
1 1:0 2:0.82 3:0 4:0 5:0 6:0 7:0 8:0 9:0 10:1.24 11:0 12:0 13:0 14:0 15:0 16:0 17:0 18:0 19:1.65 20:0 21:0 22:9.95 23:0 24:0 25:0 26:0 27:0 28:0 29:0 30:0 31:0 32:0 33:0 34:0 35:0 36:0 37:0 38:0 39:0 40:0 41:0 42:0 43:0 44:0 45:0 46:0 47:0 48:0 49:4.149 50:0 51:0 52:0.07 53:0 54:0.562 55:7.416 56:43 57:356 
0.2618077297712913 1:0 2:0 3:0 4:0 5:0 6:0 7:0 8:0 9:0 10:0 11:0 12:0 13:0 14:0 15:0 16:20 17:0 18:0 19:0 20:0 21:0 22:0 23:0 24:0 25:0 26:0 27:20 28:0 29:0 30:0 31:0 32:0 33:0 34:0 35:0 36:0 37:0 38:0 39:0 40:0 41:0 42:0 43:0 44:0 45:0 46:0 47:0 48:0 49:0 50:0 51:0 52:0 53:0 54:0 55:1 56:1 57:4 
1 1:0 2:0.28 3:0.42 4:0 5:0 6:0 7:0 8:0 9:0 10:0 11:0 12:0.28 13:0 14:0 15:0 16:0.14 17:0 18:0.14 19:0.14 20:0 21:0.14 22:0 23:0 24:0 25:0 26:0 27:0 28:0 29:0 30:0 31:0 32:0 33:0 34:0 35:0 36:0 37:0 38:0 39:0 40:0 41:0 42:0 43:0.14 44:0.14 45:0.14 46:0 47:0 48:0 49:0 50:0.132 51:0 52:0.022 53:0 54:0 55:2.621 56:70 57:422 
1 1:0 2:0.22 3:0 4:0 5:0.22 6:0 7:0 8:0 9:0 10:0 11:0 12:1.36 13:0 14:0 15:0 16:0 17:0 18:1.59 19:0.91 20:0 21:0 22:0 23:0 24:0 25:0 26:0 27:0 28:0 29:0.22 30:0 31:0 32:0 33:0.45 34:0 35:0 36:0 37:0 38:0 39:0 40:0 41:0 42:0 43:0 44:0 45:0 46:0 47:0 48:0 49:0 50:0.326 51:0 52:0.285 53:0 54:0 55:2.043 56:31 57:141 
1 1:0 2:0.38 3:0.38 4:0 5:0 6:0.38 7:0 8:0 9:0 10:0.38 11:0 12:0.77 13:0 14:0 15:0 16:0 17:0 18:0 19:3.5 20:0 21:1.16 22:0 23:0 24:0 25:0 26:0 27:0 28:0 29:0.38 30:0 31:0 32:0 33:0 34:0 35:0 36:0 37:0 38:0 39:0 40:0 41:0 42:0 43:0 44:0 45:0 46:0 47:0 48:0 49:0 50:0.131 51:0.065 52:0 53:0 54:0 55:1.843 56:11 57:118 
1 1:0 2:0 3:0.66 4:0 5:0 6:0.66 7:0 8:0 9:0 10:0 11:0 12:0.66 13:0 14:0 15:0 16:0 17:0 18:0 19:1.66 20:0 21:0.66 22:0 23:0 24:0 25:0 26:0 27:0 28:0 29:0 30:0 31:0 32:0 33:0 34:0 35:0 36:0 37:0 38:0 39:0 40:0 41:0 42:0 43:0 44:0.33 45:0.33 46:0 47:0 48:0 49:0 50:0 51:0 52:0 53:0 54:0 55:1.142 56:4 57:56 
1 1:0.18 2:0 3:0.18 4:0 5:0 6:0 7:0 8:0 9:0.94 10:0 11:0 12:0.37 13:0 14:0 15:0 16:0.09 17:0 18:0 19:0.37 20:0 21:0.18 22:0 23:0 24:0 25:0.56 26:0.66 27:0.09 28:0 29:0 30:0 31:0 32:0 33:0.37 34:0 35:0 36:0 37:0.28 38:0 39:0 40:0 41:0 42:0 43:0 44:0 45:0 46:0 47:0 48:0 49:0.18 50:0.167 51:0.051 52:0 53:0.025 54:0 55:4.434 56:87 57:909 
1 1:0 2:0 3:0.55 4:0 5:0 6:0 7:0 8:0 9:0.55 10:0 11:0 12:0 13:0.55 14:0 15:0 16:0.55 17:0 18:0.55 19:0 20:0 21:0.55 22:0 23:0 24:0 25:0 26:0 27:0 28:0 29:0 30:0 31:0 32:0 33:0 34:0 35:0 36:0 37:0 38:0 39:0 40:0 41:0 42:0 43:0 44:0 45:0 46:0 47:0 48:0 49:0 50:0.093 51:0 52:0.563 53:0 54:0 55:2.928 56:55 57:82 
0.3332982479333016 1:0 2:0 3:0 4:0 5:0 6:0 7:0 8:0 9:0 10:0 11:0 12:0 13:0 14:0 15:0 16:0 17:0 18:0 19:0 20:0 21:0 22:0 23:0 24:0 25:0 26:0 27:0 28:0 29:0 30:0 31:0 32:0 33:0 34:0 35:0 36:0 37:0 38:0 39:0 40:4.16 41:0 42:0 43:0 44:0 45:0 46:0 47:0 48:0 49:0 50:0 51:0 52:0 53:0 54:0.602 55:4.7 56:23 57:47 
1 1:0.17 2:0.11 3:0.05 4:0 5:0.4 6:0.11 7:0 8:0.4 9:0 10:0 11:0 12:0.34 13:0.11 14:0 15:0 16:0 17:0 18:0 19:1.15 20:0 21:0.57 22:0 23:0.05 24:0 25:0.52 26:0 27:0 28:0 29:0 30:0 31:0 32:0 33:0.23 34:0 35:0.17 36:0 37:0.63 38:0 39:0 40:0 41:0 42:0 43:0 44:0.05 45:0 46:0 47:0 48:0 49:0.007 50:0.304 51:0 52:0.053 53:0.03 54:0 55:2.548 56:49 57:1134 
1 1:0 2:0 3:1.18 4:0 5:0 6:0 7:0 8:0 9:0.59 10:0 11:0 12:0 13:0 14:0 15:0 16:0 17:0 18:0 19:1.77 20:0 21:1.77 22:0 23:0 24:0 25:0 26:0 27:0 28:0 29:0 30:0 31:0 32:0 33:0 34:0 35:0 36:0 37:0.59 38:0 39:0 40:0 41:0 42:0 43:0 44:0 45:0 46:0 47:0 48:0 49:0 50:0 51:0 52:0.313 53:0.313 54:0 55:7.588 56:66 57:129 
1 1:0 2:0 3:0 4:0 5:0 6:0 7:0 8:0 9:0 10:0 11:0 12:5.88 13:0 14:0 15:0 16:0 17:0 18:0 19:0 20:0 21:0 22:0 23:0 24:0 25:0 26:0 27:0 28:0 29:0 30:0 31:0 32:0 33:0 34:0 35:0 36:0 37:0 38:0 39:0 40:0 41:0 42:0 43:0 44:0 45:0 46:0 47:0 48:0 49:0 50:0 51:0 52:0.961 53:0 54:0 55:2.333 56:9 57:14 
1 1:0.06 2:0 3:0.32 4:0 5:0 6:0 7:0 8:0 9:0 10:0.06 11:0 12:0.06 13:0.06 14:0 15:0 16:0 17:0 18:0.06 19:2.79 20:0 21:1.1 22:0.25 23:0 24:0 25:0 26:0 27:0 28:0 29:0 30:0 31:0 32:0 33:0 34:0 35:0 36:0 37:0 38:0 39:0 40:0 41:0 42:0.06 43:0 44:0 45:0.06 46:0.19 47:0 48:0 49:0.317 50:0.035 51:0 52:0.093 53:0 54:0 55:1.11 56:9 57:261 
1 1:0 2:0 3:0.93 4:0 5:0.31 6:0 7:0 8:0 9:0.31 10:0 11:0.31 12:0.93 13:0 14:0 15:0 16:0 17:0.62 18:0 19:3.75 20:0 21:3.43 22:0 23:0 24:0 25:0 26:0 27:0 28:0 29:0 30:0 31:0 32:0 33:0 34:0 35:0 36:0 37:0.31 38:0 39:0 40:0 41:0 42:0 43:0 44:0 45:0 46:0 47:0 48:0 49:0.054 50:0.108 51:0 52:0.054 53:0 54:0.054 55:2.735 56:14 57:145 
1 1:0 2:0 3:0 4:0 5:0 6:0 7:0 8:0 9:0 10:0 11:0 12:0 13:0 14:0 15:0 16:0 17:0 18:0 19:0 20:0 21:0 22:0 23:0 24:0 25:0 26:0 27:0.07 28:0 29:0.07 30:0 31:0 32:0 33:0.07 34:0 35:0 36:0 37:0 38:0 39:0 40:0.07 41:0 42:0 43:0 44:0 45:0 46:0 47:0 48:0 49:0 50:0.104 51:0.324 52:0 53:0 54:0.011 55:4.411 56:28 57:1866 
1 1:0 2:0 3:0 4:0 5:0 6:0.23 7:0 8:0 9:0 10:0.23 11:0 12:1.18 13:0 14:0 15:0 16:0 17:0.23 18:0 19:1.18 20:0 21:0.47 22:0 23:0 24:0 25:0 26:0 27:0 28:0 29:0 30:0 31:0 32:0 33:0 34:0 35:0 36:0 37:0.71 38:0 39:0 40:0 41:0 42:0 43:0 44:0 45:0 46:0 47:0 48:0.71 49:0 50:0 51:0 52:0 53:0.069 54:0 55:2.216 56:44 57:215 
1 1:0 2:0 3:0 4:0 5:0 6:0 7:0 8:0 9:0 10:5.26 11:0 12:0 13:0 14:0 15:0 16:0 17:0 18:0 19:5.26 20:0 21:0 22:0 23:0 24:0 25:0 26:0 27:0 28:0 29:0 30:0 31:0 32:0 33:0 34:0 35:0 36:0 37:0 38:0 39:0 40:0 41:0 42:0 43:0 44:0 45:0 46:0 47:0 48:0 49:0 50:0 51:0 52:0 53:0 54:0 55:1.666 56:3 57:5 
0.5280587624967278 1:0 2:0 3:5.1 4:0 5:2.04 6:0 7:0 8:0 9:0 10:0 11:0 12:1.02 13:0 14:0 15:0 16:0 17:0 18:0 19:1.02 20:0 21:0 22:0 23:0 24:0 25:0 26:0 27:1.02 28:0 29:0 30:0 31:0 32:0 33:0 34:0 35:0 36:0 37:0 38:0 39:0 40:0 41:0 42:0 43:0 44:0 45:0 46:0 47:0 48:0 49:0 50:1.094 51:0 52:0 53:0 54:0 55:1.29 56:5 57:40 
1 1:0 2:0 3:0 4:0 5:0 6:0 7:0 8:0 9:0 10:0 11:0 12:0 13:0 14:0 15:0 16:0 17:0 18:0 19:2.08 20:0 21:0 22:0 23:0 24:0 25:0 26:0 27:0 28:0 29:0 30:0 31:0 32:0 33:0 34:0 35:0 36:0 37:0 38:0 39:0 40:0 41:0 42:0 43:0 44:0 45:0 46:0 47:0 48:0 49:0 50:0 51:0 52:0 53:0 54:0 55:1.428 56:4 57:10 
1 1:0 2:0 3:0 4:0 5:0 6:0 7:0 8:0 9:0 10:0 11:0 12:0 13:0 14:0 15:0 16:0.27 17:0 18:0.27 19:0.55 20:0 21:0.55 22:0 23:0 24:0 25:0 26:0 27:0 28:0 29:0 30:0 31:0 32:0 33:0 34:0 35:0 36:0 37:0 38:0 39:0 40:0 41:0 42:0 43:0 44:0 45:0.55 46:0.27 47:0 48:0 49:0 50:0.122 51:0.081 52:0 53:0 54:0.04 55:3.891 56:70 57:323 
1 1:0.15 2:0.1 3:0 4:0 5:0.3 6:0.15 7:0 8:0.3 9:0 10:0 11:0 12:0.6 13:0 14:0 15:0 16:0 17:0 18:0 19:2.06 20:0 21:0.85 22:0 23:0.05 24:0 25:0.2 26:0 27:0 28:0 29:0 30:0 31:0 32:0 33:0.25 34:0 35:0.15 36:0 37:0.35 38:0 39:0 40:0 41:0 42:0 43:0 44:0.05 45:0 46:0 47:0 48:0 49:0.073 50:0.234 51:0 52:0.073 53:0 54:0 55:2.206 56:49 57:1026 
1 1:0 2:0 3:0 4:0 5:0 6:0 7:0 8:0 9:0 10:0 11:0 12:0 13:0 14:0 15:0 16:0 17:0 18:0 19:0 20:0 21:0 22:0 23:0 24:0 25:0 26:0 27:0 28:0 29:0 30:0 31:0 32:0 33:1.94 34:0 35:0 36:0 37:0.48 38:0 39:0.48 40:0 41:0 42:0 43:0 44:0 45:0 46:0 47:0 48:0 49:0 50:0.057 51:0 52:0 53:0 54:0 55:6.526 56:83 57:248 
1 1:0.38 2:0 3:1.16 4:0 5:0 6:0 7:0 8:0 9:0 10:0 11:0 12:1.16 13:0 14:0 15:0 16:0.77 17:0 18:0 19:0.77 20:0 21:0 22:0 23:0 24:0 25:0 26:0 27:0 28:0 29:0 30:0 31:0 32:0 33:0 34:0 35:0 36:0 37:0 38:0 39:0 40:0 41:0 42:0 43:0 44:0 45:0.77 46:0.38 47:0 48:0 49:0 50:0 51:0 52:0 53:0 54:0 55:2 56:51 57:114 
1 1:0.16 2:0.16 3:0.16 4:0 5:0.83 6:0.16 7:0 8:0.16 9:0 10:0 11:0 12:0.5 13:0.16 14:0 15:0 16:0 17:0 18:0 19:2.34 20:0 21:0.67 22:0 23:0 24:0 25:0 26:0 27:0 28:0 29:0 30:0 31:0 32:0 33:0 34:0 35:0 36:0 37:0 38:0 39:0 40:0 41:0 42:0 43:0 44:0.16 45:0.33 46:0.16 47:0 48:0 49:0.087 50:0.058 51:0 52:0 53:0 54:0 55:1.901 56:16 57:135 
1 1:0.04 2:0.02 3:0.12 4:0 5:0.08 6:0.02 7:0 8:0.08 9:0 10:0.06 11:0.02 12:0.5 13:0.06 14:0 15:0.02 16:0.02 17:0.14 18:0.12 19:0.25 20:0 21:0.19 22:0 23:0.04 24:0 25:0 26:0 27:0.1 28:0 29:0.02 30:0 31:0 32:0 33:1.97 34:0 35:0 36:0.19 37:0.97 38:0.02 39:0 40:0.02 41:0.1 42:0.02 43:0 44:0.14 45:0 46:0.33 47:0.02 48:0.1 49:0.024 50:0.198 51:0 52:0 53:0.018 54:0.003 55:2.43 56:81 57:3337 
1 1:0 2:0 3:0 4:0 5:0 6:0 7:0 8:0 9:0 10:0 11:0 12:0 13:0 14:0 15:0 16:0 17:0 18:0 19:0 20:0 21:0 22:0 23:0 24:0 25:0 26:0 27:0.42 28:0 29:0 30:0 31:0 32:0 33:0 34:0 35:0 36:0 37:0 38:0 39:0 40:0 41:0 42:0 43:0 44:0 45:0 46:0 47:0 48:0 49:0 50:0.34 51:0.272 52:0 53:0 54:0 55:4.382 56:28 57:298 
1 1:0 2:0 3:0.56 4:0 5:0.08 6:0.16 7:0 8:0 9:0 10:0.16 11:0 12:0 13:0 14:0.24 15:0 16:0 17:0 18:0 19:0.24 20:0 21:0 22:0 23:0 24:0 25:0 26:0 27:0 28:0 29:0 30:0 31:0 32:0 33:0.08 34:0 35:0.08 36:0.08 37:0 38:0 39:0 40:0 41:0 42:0 43:0 44:0 45:0 46:0 47:0 48:1.54 49:0.164 50:0.505 51:0 52:0.01 53:0.021 54:0 55:2.729 56:55 57:1122 
1 1:0 2:0 3:0 4:0 5:0 6:0 7:0 8:0.79 9:0 10:0 11:0 12:0.79 13:0 14:0 15:0 16:0 17:0 18:0 19:0.39 20:0 21:0 22:0 23:0 24:0 25:0 26:0 27:0 28:0 29:0.39 30:0 31:0 32:0 33:0 34:0 35:0 36:0 37:0 38:0 39:0 40:0 41:0 42:0 43:0 44:0 45:0 46:0 47:0 48:0 49:0 50:0 51:0 52:0 53:0 54:0 55:1.309 56:8 57:55 
1 1:0 2:0 3:0.25 4:0 5:0.25 6:0 7:0 8:0 9:0 10:0 11:0 12:0 13:0 14:0 15:0 16:0 17:0 18:0 19:2.05 20:0 21:0.51 22:0 23:0 24:0 25:0 26:0 27:0 28:0 29:0 30:0 31:0 32:0 33:0 34:0 35:0 36:0 37:0 38:0 39:0 40:0 41:0 42:0 43:0 44:0 45:0.76 46:0.25 47:0 48:0 49:0 50:0.094 51:0 52:0.047 53:0 54:0 55:1.884 56:51 57:147 
1 1:0 2:0 3:0 4:0 5:0 6:0 7:0 8:0 9:0 10:0 11:0 12:0 13:0 14:0 15:0 16:0.72 17:0 18:0.72 19:2.18 20:0 21:0.72 22:0 23:0 24:0 25:0 26:0 27:0 28:0 29:0 30:0 31:0 32:0 33:0 34:0 35:0 36:0 37:0 38:0 39:0 40:0 41:0 42:0 43:0 44:0 45:0.72 46:0 47:0 48:0 49:0 50:0.298 51:0 52:0.198 53:0 54:0.099 55:4 56:59 57:128 
1 1:0 2:0 3:0 4:0 5:0 6:0 7:2.22 8:2.22 9:0 10:0 11:0 12:0 13:0 14:0 15:0 16:0 17:0 18:0 19:0 20:0 21:0 22:0 23:0 24:0 25:0 26:0 27:0 28:0 29:0 30:0 31:0 32:0 33:0 34:0 35:0 36:0 37:0 38:0 39:0 40:0 41:0 42:0 43:0 44:0 45:0 46:0 47:0 48:0 49:0 50:0.665 51:0 52:0 53:0.665 54:0 55:4.571 56:25 57:64 
1 1:0 2:0 3:0 4:0 5:0 6:0 7:0 8:0 9:0 10:0 11:0 12:0 13:0 14:0 15:0 16:0.41 17:0 18:0.41 19:1.23 20:0 21:0.41 22:0 23:0 24:0 25:0 26:0 27:0 28:0 29:0 30:0 31:0 32:0 33:0 34:0 35:0 36:0 37:0 38:0 39:0 40:0 41:0 42:0 43:0 44:0 45:0.82 46:0 47:0 48:0 49:0 50:0.229 51:0 52:0.114 53:0 54:0.057 55:5.196 56:70 57:265 
1 1:0 2:0 3:0 4:0 5:0 6:0 7:0 8:0 9:0 10:0.58 11:0 12:0 13:0 14:0 15:0 16:0 17:0 18:0 19:1.17 20:0 21:1.17 22:0 23:0 24:0 25:0 26:0 27:0 28:0 29:0.58 30:0 31:0 32:0 33:0 34:0 35:0 36:0 37:0 38:0 39:0 40:0 41:0 42:0 43:0 44:0 45:0 46:0 47:0 48:0 49:0 50:0.817 51:0 52:0 53:0 54:0 55:1.64 56:5 57:146 
1 1:0 2:0 3:0 4:0 5:0 6:0 7:1.23 8:0 9:0 10:0 11:0 12:1.23 13:0 14:0 15:0 16:0 17:1.23 18:0 19:0 20:0 21:0 22:0 23:0 24:0 25:2.46 26:0 27:0 28:0 29:0 30:1.23 31:0 32:0 33:0 34:0 35:0 36:0 37:0 38:0 39:0 40:0 41:0 42:0 43:0 44:0 45:0 46:0 47:0 48:0 49:0 50:0 51:0 52:0.403 53:0 54:0 55:2.045 56:6 57:45 
1 1:0 2:0 3:0.25 4:0 5:0 6:0.25 7:0.5 8:0.25 9:0 10:0 11:0 12:0 13:0 14:0 15:0 16:0 17:0 18:0 19:1.25 20:0 21:0.25 22:0 23:0 24:0 25:0 26:0 27:0 28:0 29:0 30:0 31:0 32:0 33:0 34:0 35:0 36:0 37:0 38:0 39:0 40:0 41:0 42:0 43:0 44:0 45:0.25 46:0 47:0 48:0 49:0 50:0.18 51:0 52:0.045 53:0 54:0 55:1.324 56:5 57:98 
1 1:0.1 2:0.1 3:0.1 4:0 5:0.21 6:0.1 7:0 8:0 9:0.1 10:0.31 11:0 12:0.84 13:0.21 14:0 15:0 16:0.1 17:0 18:0.21 19:1.78 20:0 21:0.63 22:0 23:0 24:0.1 25:0 26:0 27:0 28:0 29:0 30:0 31:0 32:0 33:0 34:0 35:0 36:0 37:0 38:0 39:0 40:0 41:0 42:0 43:0 44:0 45:0 46:0.21 47:0 48:0 49:0.035 50:0.177 51:0.035 52:0.07 53:0.053 54:0 55:1.744 56:29 57:417 
1 1:0.83 2:0 3:0.41 4:0 5:0 6:0 7:0 8:0 9:0 10:0 11:0.41 12:0.83 13:0 14:0 15:0 16:0 17:0 18:0 19:2.91 20:0 21:1.66 22:0 23:0 24:0 25:0.41 26:0.41 27:0 28:0 29:0 30:0 31:0 32:0 33:0 34:0 35:0 36:0 37:0.41 38:0 39:0 40:0 41:0 42:0 43:0.41 44:0 45:0 46:0 47:0 48:0 49:0 50:0 51:0 52:0.283 53:0 54:0 55:2.022 56:13 57:91 
1 1:0 2:0 3:0.74 4:0 5:0 6:0 7:0 8:0 9:0 10:0.74 11:0 12:0 13:0.37 14:0.74 15:0 16:0 17:0.37 18:0 19:0.37 20:0 21:0.37 22:0 23:0 24:0 25:0 26:0 27:0 28:0 29:0 30:0 31:0 32:0 33:0 34:0 35:0 36:0 37:1.11 38:0 39:0 40:0 41:0 42:0 43:0 44:0.37 45:0 46:0 47:0 48:0 49:0 50:0.245 51:0 52:0 53:0 54:0 55:4.666 56:64 57:196 
1 1:0 2:0 3:0 4:0 5:0 6:0 7:0 8:0 9:0 10:1.02 11:0 12:1.02 13:0 14:0 15:0 16:0 17:0 18:0 19:5.1 20:0 21:0 22:0 23:0 24:0 25:0 26:0 27:0 28:0 29:0 30:0 31:0 32:0 33:0 34:0 35:0 36:0 37:0 38:0 39:0 40:0 41:0 42:0 43:0 44:2.04 45:0 46:0 47:0 48:0 49:0.309 50:0.154 51:0 52:0.154 53:0 54:0 55:3.304 56:48 57:76 
1 1:0.95 2:0 3:0 4:0 5:0 6:0 7:0 8:0 9:0 10:0 11:0 12:0 13:0 14:0 15:0 16:0 17:0 18:0 19:1.9 20:0 21:0.95 22:0 23:0 24:0 25:0 26:0 27:0 28:0 29:0 30:0 31:0 32:0 33:0 34:0 35:0 36:0 37:0 38:0 39:0 40:0 41:0 42:0 43:0 44:0 45:0.95 46:0.95 47:0 48:0 49:0 50:0.144 51:0 52:5.78 53:0 54:0 55:2.13 56:15 57:49 
0.5875127257004713 1:0 2:0 3:0.81 4:0 5:1.63 6:0 7:0 8:0 9:0 10:0 11:0 12:0 13:0 14:0 15:0 16:0 17:0 18:0 19:0.81 20:0 21:0 22:0 23:0 24:0 25:0 26:0 27:0.81 28:0 29:0 30:0 31:0 32:0 33:0 34:0 35:0 36:0 37:0 38:0.81 39:0 40:0 41:0 42:0 43:0 44:0 45:0 46:0 47:0 48:0 49:0 50:0 51:0 52:0 53:0 54:0 55:1.09 56:2 57:12 
1 1:0.01 2:0.01 3:0.07 4:0 5:0.05 6:0 7:0 8:0.01 9:0.03 10:0.13 11:0.05 12:0 13:0 14:0.05 15:0 16:0 17:0.01 18:0.07 19:0.01 20:0 21:0.01 22:0 23:0 24:0 25:0 26:0 27:0 28:0 29:0 30:0 31:0 32:0 33:0.07 34:0 35:0 36:0.13 37:0 38:0 39:0 40:0.01 41:0.46 42:0 43:0 44:0.03 45:0 46:0.8 47:0.01 48:0.07 49:0.05 50:0.301 51:0.131 52:0.002 53:0.09 54:0.002 55:2.577 56:82 57:5395 
1 1:0 2:0 3:0 4:0 5:6.25 6:0 7:0 8:0 9:0 10:0 11:0 12:0 13:0 14:0 15:0 16:0 17:0 18:0 19:0 20:0 21:0 22:0 23:0 24:0 25:0 26:0 27:0 28:0 29:0 30:0 31:0 32:0 33:0 34:0 35:0 36:0 37:0 38:0 39:0 40:0 41:0 42:0 43:0 44:0 45:0 46:0 47:0 48:0 49:0 50:0 51:0 52:0 53:0 54:0 55:2 56:6 57:10 
1 1:0 2:0 3:1.49 4:0 5:0 6:0 7:0 8:0 9:0 10:0 11:0 12:0 13:0 14:0 15:0 16:0 17:0 18:0 19:1.49 20:0 21:2.98 22:0 23:0 24:0 25:0 26:0 27:0 28:0 29:0 30:0 31:0 32:0 33:0 34:0 35:0 36:0 37:0 38:0 39:0 40:0 41:0 42:0 43:0 44:0 45:1.49 46:0 47:0 48:0 49:0 50:0 51:0 52:1.069 53:0 54:0 55:1 56:1 57:13 
1 1:0 2:0 3:0 4:0 5:0 6:0 7:0 8:0 9:0 10:0 11:0 12:1.4 13:0 14:0 15:0 16:0 17:0.7 18:0 19:1.4 20:0 21:1.4 22:0 23:0 24:0 25:0 26:0 27:0.7 28:0 29:0 30:0 31:0.7 32:0 33:0 34:0 35:0 36:0 37:0 38:0 39:0 40:2.11 41:0 42:0 43:0 44:0 45:0 46:0 47:0 48:0 49:0 50:0.267 51:0.066 52:0 53:0 54:0 55:17.952 56:200 57:377 
1 1:0 2:0 3:0 4:0 5:0 6:0 7:0 8:0 9:0 10:0 11:0 12:0 13:0 14:0 15:0 16:1.03 17:0 18:0 19:3.09 20:0 21:0 22:0 23:0 24:0 25:0 26:0 27:0 28:0 29:0 30:0 31:0 32:0 33:0 34:0 35:0 36:0 37:0 38:0 39:0 40:0 41:0 42:0 43:0 44:0 45:1.03 46:1.03 47:0 48:0 49:0 50:0 51:0 52:0 53:0 54:0 55:2.843 56:47 57:91 
1 1:0 2:0 3:1.13 4:0 5:0.37 6:0 7:0 8:0 9:0 10:0 11:0 12:0 13:0 14:0 15:0 16:0.37 17:0 18:0.37 19:1.13 20:0 21:0.37 22:0 23:0 24:0 25:0 26:0 27:0 28:0 29:0 30:0 31:0 32:0 33:0 34:0 35:0 36:0 37:0 38:0 39:0 40:0 41:0 42:0 43:0 44:0 45:0 46:0 47:0 48:0 49:0 50:0.145 51:0 52:0.436 53:0 54:0 55:1.792 56:55 57:147 
1 1:0 2:0 3:0 4:0 5:0 6:0 7:0 8:0 9:0 10:0 11:0 12:0 13:0 14:0 15:0 16:1.47 17:0 18:0 19:0 20:0 21:0 22:0 23:0 24:0 25:0 26:0 27:0 28:1.47 29:0 30:0 31:0 32:0 33:0 34:0 35:0 36:0 37:0 38:0 39:0 40:0 41:0 42:0 43:0 44:0 45:0 46:0 47:0 48:0 49:0 50:0.253 51:0.253 52:0 53:0 54:0 55:2.352 56:17 57:40 
1 1:0.16 2:0 3:0.32 4:0 5:0.1 6:0.1 7:0 8:0 9:0 10:0 11:0 12:0.21 13:0.96 14:0 15:0 16:0.05 17:0.05 18:0 19:0.64 20:0 21:0 22:0 23:0.1 24:0 25:0 26:0 27:0 28:0 29:0 30:0 31:0 32:0 33:0 34:0 35:0 36:0 37:0 38:0 39:0 40:0 41:0 42:0 43:0 44:0 45:0.1 46:0 47:0 48:0 49:0.025 50:0.017 51:0.008 52:0 53:0.008 54:0.008 55:1.318 56:12 57:244 
1 1:0 2:0.78 3:1.56 4:0 5:0 6:0 7:0 8:0 9:0 10:0 11:0 12:0.78 13:0 14:0 15:0 16:0 17:0 18:1.56 19:5.46 20:0 21:3.9 22:0 23:0 24:0 25:0 26:0 27:0 28:0 29:0 30:0 31:0 32:0 33:0 34:0 35:0 36:0 37:0 38:0 39:0 40:0 41:0 42:0 43:0 44:0 45:0 46:0 47:0 48:0 49:0 50:0.137 51:0 52:0.275 53:0 54:0 55:1.625 56:9 57:39 
1 1:0 2:0 3:3.44 4:0 5:0 6:0 7:0 8:0 9:0 10:0 11:0 12:0 13:0 14:0 15:0 16:0 17:0 18:3.44 19:0 20:0 21:3.44 22:0 23:0 24:0 25:0 26:0 27:0 28:0 29:0 30:0 31:0 32:0 33:0 34:0 35:0 36:0 37:0 38:0 39:0 40:0 41:0 42:0 43:0 44:0 45:0 46:0 47:0 48:0 49:0 50:0 51:0 52:0 53:0 54:0 55:1.727 56:4 57:19 
1 1:0 2:0 3:0.36 4:0 5:0 6:0.73 7:0 8:0 9:0 10:0 11:0 12:1.46 13:0.36 14:0 15:0 16:0 17:0 18:0 19:0 20:0 21:0 22:0 23:0 24:0 25:0 26:0 27:0 28:0 29:0 30:0 31:0 32:0 33:0 34:0 35:0 36:0 37:0.36 38:0 39:0 40:0 41:0 42:0 43:0 44:0 45:0 46:0 47:0 48:0 49:0 50:0.049 51:0 52:0.049 53:0 54:0 55:1.919 56:54 57:167 
1 1:0 2:0 3:0 4:0 5:0 6:0 7:0 8:0 9:0.27 10:0 11:0 12:0.82 13:0.27 14:0 15:0 16:0 17:1.64 18:0 19:1.36 20:0 21:0.54 22:0 23:0 24:0 25:0.27 26:0 27:0 28:0 29:0 30:0 31:0 32:0 33:0 34:0 35:0 36:0.54 37:0.27 38:0 39:0 40:0 41:0 42:0 43:0 44:0 45:0 46:0 47:0 48:0 49:0 50:0.09 51:0 52:0.045 53:0 54:0 55:1.465 56:8 57:85 
1 1:0 2:0 3:0.37 4:0 5:0.37 6:0 7:0 8:0 9:0 10:0 11:0 12:0.37 13:0 14:0 15:0 16:0.37 17:0 18:0 19:0.37 20:0 21:0.37 22:0 23:0 24:0 25:0.37 26:0.74 27:0 28:0 29:0 30:0 31:0 32:0 33:0 34:0 35:0 36:0.37 37:0.74 38:0 39:0 40:0 41:0 42:0 43:0.37 44:0 45:0 46:0 47:0 48:0 49:0 50:0.162 51:0 52:0 53:0 54:0 55:2.643 56:34 57:193 
1 1:0 2:0 3:0 4:0 5:0 6:0.49 7:0 8:0.49 9:0 10:0 11:0 12:0 13:0 14:0 15:0 16:0 17:0 18:0 19:0.49 20:0 21:0 22:0 23:0 24:0 25:0 26:0 27:0.49 28:0 29:0 30:0 31:0 32:0 33:0 34:0 35:0 36:0 37:0.49 38:0 39:0 40:0 41:0 42:0 43:0 44:0 45:0 46:0 47:0 48:0 49:0 50:0.228 51:0 52:0 53:0 54:0 55:1.962 56:5 57:106 
1 1:0.29 2:0 3:0.29 4:0 5:0 6:0 7:0 8:0 9:0 10:0.29 11:0 12:0.29 13:0.59 14:0 15:0 16:0.29 17:0 18:0 19:3.86 20:0 21:0.29 22:0 23:0 24:0 25:0 26:0 27:0 28:0 29:0 30:0 31:0 32:0 33:0 34:0 35:0 36:0 37:0 38:0 39:0 40:0 41:0 42:0 43:0 44:0 45:0 46:0.29 47:0 48:0 49:0 50:0.107 51:0 52:0 53:0 54:0 55:1.22 56:6 57:61 
1 1:0 2:0 3:0 4:0 5:0 6:0 7:0 8:0 9:0 10:0 11:0 12:0.32 13:0 14:0 15:0 16:0 17:0 18:0.65 19:0 20:0 21:0 22:0 23:0 24:0 25:0 26:0 27:0 28:0 29:0 30:0 31:0 32:0 33:0 34:0 35:0 36:0 37:0.97 38:0 39:0 40:0 41:0 42:0 43:0 44:0 45:0 46:0 47:0 48:0.97 49:0 50:0.1 51:0 52:0 53:0 54:0 55:2.59 56:69 57:386 
1 1:0.71 2:0 3:0 4:0 5:0 6:0 7:0 8:0 9:0 10:0 11:0 12:0 13:0 14:0 15:0 16:0 17:0 18:0 19:1.43 20:0 21:0.71 22:0 23:0 24:0 25:0 26:0 27:0 28:0 29:0 30:0 31:0 32:0 33:0 34:0 35:0 36:0 37:0 38:0 39:0 40:0 41:0 42:0 43:0 44:0 45:0 46:0 47:0 48:0 49:0 50:0 51:0 52:0 53:0 54:0 55:3.041 56:26 57:73 
0.8169414050662183 1:0 2:0 3:0 4:0 5:0 6:0 7:0 8:0 9:0 10:0 11:0 12:0 13:0 14:10 15:0 16:0 17:0 18:0 19:0 20:0 21:0 22:0 23:0 24:0 25:0 26:0 27:0 28:0 29:0 30:0 31:0 32:0 33:0 34:0 35:0 36:0 37:0 38:0 39:0 40:0 41:0 42:0 43:0 44:0 45:0 46:0 47:0 48:0 49:0 50:0 51:0 52:0 53:0 54:0 55:4.75 56:8 57:19 
1 1:0 2:0 3:0.51 4:0 5:0.17 6:0 7:0 8:0 9:0 10:0 11:0 12:0.34 13:0 14:0 15:0 16:0 17:0 18:0 19:2.73 20:0 21:0 22:0 23:0 24:0 25:0 26:0 27:0 28:0 29:0 30:0 31:0 32:0 33:0 34:0 35:0 36:0 37:0 38:0 39:0 40:0 41:0 42:0 43:0 44:0 45:0 46:0 47:0 48:0 49:0 50:0.064 51:0 52:0.064 53:0 54:0 55:3.587 56:55 57:226 
1 1:0 2:0 3:0 4:0 5:0 6:0 7:0 8:0 9:0 10:0 11:0 12:0 13:0 14:0 15:0 16:0 17:0 18:0 19:0 20:0 21:0 22:0 23:0 24:0 25:0 26:0 27:0 28:0 29:0 30:0 31:0 32:0 33:0 34:0 35:0 36:0 37:0 38:0 39:0 40:0 41:0 42:0 43:0 44:0 45:0 46:0 47:0 48:0 49:0 50:0 51:0 52:3.571 53:0 54:0 55:1 56:1 57:4 
1 1:0 2:0 3:0.06 4:0 5:0.89 6:0.13 7:0 8:0.2 9:0 10:0 11:0 12:0.13 13:0.06 14:0 15:0 16:0 17:0.96 18:0 19:0 20:0 21:0 22:0 23:0 24:0 25:1.1 26:0 27:0 28:0 29:0 30:0 31:0 32:0 33:0 34:0 35:0 36:0 37:0.13 38:0.06 39:0 40:0 41:0 42:0.06 43:0 44:0 45:0.34 46:0 47:0 48:0 49:0.018 50:0.047 51:0 52:0 53:0.085 54:0 55:2.924 56:52 57:617 
1 1:0 2:0 3:0 4:0 5:0 6:0 7:0 8:0 9:0 10:0 11:0 12:0 13:0 14:0 15:0 16:0 17:0 18:0 19:0 20:0 21:0 22:0 23:0 24:0 25:0 26:0 27:0 28:0 29:0 30:0 31:0 32:0 33:0 34:0 35:0 36:0 37:0 38:0 39:0 40:0 41:0 42:0 43:0 44:0 45:0 46:0 47:0 48:0 49:0 50:0.943 51:0 52:0.943 53:0 54:0 55:2.166 56:5 57:13 
1 1:0 2:0 3:0 4:0 5:0 6:0 7:0 8:0 9:0 10:18.18 11:0 12:0 13:0 14:0 15:0 16:0 17:0 18:0 19:0 20:0 21:0 22:0 23:0 24:0 25:0 26:0 27:0 28:0 29:0 30:0 31:0 32:0 33:0 34:0 35:0 36:0 37:0 38:0 39:0 40:0 41:0 42:0 43:0 44:0 45:0 46:0 47:0 48:0 49:0 50:0 51:0 52:0 53:0 54:0 55:20 56:39 57:40 
1 1:0 2:0 3:0.35 4:0 5:0.35 6:0.71 7:0 8:0 9:0 10:0 11:0 12:0.71 13:0 14:0 15:0 16:0 17:0 18:0 19:0.71 20:0 21:0.35 22:0 23:0 24:0 25:0 26:0 27:0 28:0 29:0 30:0 31:0 32:0 33:0.35 34:0 35:0 36:0 37:0.35 38:0 39:0.35 40:0 41:0 42:0 43:0.35 44:0 45:0.35 46:0 47:0 48:0 49:0 50:0.124 51:0 52:0.372 53:0 54:0 55:1.641 56:12 57:110 
1 1:0 2:0 3:1.81 4:0 5:0 6:0 7:0 8:0 9:0 10:0 11:0 12:0.9 13:0.9 14:0 15:0 16:0 17:0 18:0 19:4.54 20:0 21:2.72 22:0 23:0 24:0 25:0 26:0 27:0 28:0 29:0 30:0 31:0 32:0 33:0 34:0 35:0 36:0 37:0 38:0 39:0 40:0 41:0 42:0 43:0 44:0 45:0 46:0 47:0 48:0 49:0 50:0 51:0 52:0.164 53:0 54:0 55:1.391 56:8 57:32 
1 1:0.01 2:0.03 3:0.2 4:0 5:0.09 6:0.03 7:0 8:0 9:0.05 10:0.05 11:0 12:0.47 13:0.03 14:0.17 15:0 16:0.09 17:0.18 18:0.13 19:0.35 20:0.03 21:0.15 22:0 23:0 24:0.03 25:0 26:0 27:0.05 28:0.03 29:0.01 30:0 31:0 32:0 33:1.47 34:0 35:0 36:0.11 37:0.9 38:0 39:0 40:0.03 41:0 42:0.07 43:0 44:0.13 45:0.05 46:0.18 47:0 48:0.15 49:0.038 50:0.263 51:0.005 52:0.016 53:0 54:0.005 55:2.23 56:102 57:3168 
1 1:0 2:0 3:1 4:0 5:1.5 6:0 7:0 8:0 9:0 10:1 11:0.5 12:2 13:0 14:0 15:0 16:0 17:0 18:0 19:6.5 20:0 21:3 22:0 23:0 24:0 25:0 26:0 27:0 28:0 29:0 30:0 31:0 32:0 33:0 34:0 35:0 36:0 37:0 38:0 39:0 40:0 41:0 42:0 43:0 44:0 45:0 46:0 47:0 48:0 49:0 50:0 51:0 52:0.145 53:0 54:0 55:1.342 56:14 57:51 
1 1:0 2:0 3:0 4:0 5:0 6:0.5 7:0 8:0 9:0 10:0 11:0 12:0 13:0 14:0 15:0 16:0 17:0 18:0.5 19:2 20:0 21:0.5 22:0 23:0 24:0 25:0 26:0 27:0 28:0 29:0 30:0 31:0 32:0 33:0 34:0 35:0 36:0 37:0 38:0 39:0 40:0 41:0 42:0 43:0 44:0 45:0 46:0 47:0 48:0 49:0 50:0 51:0 52:0.271 53:0 54:0 55:1.057 56:2 57:37 
1 1:0 2:0 3:0 4:0 5:0 6:0 7:0 8:0 9:0 10:0 11:0 12:0 13:0 14:0 15:0 16:0 17:0 18:0 19:0 20:0 21:0 22:0 23:0 24:0 25:0 26:0 27:0 28:0 29:0 30:0 31:0 32:0 33:0 34:0 35:0 36:0 37:0 38:0 39:0 40:0 41:0 42:0 43:0 44:0 45:0 46:0 47:0 48:0 49:0 50:0.869 51:0 52:1.739 53:0 54:0 55:1 56:1 57:6 
1 1:0 2:0 3:0 4:0 5:0 6:0 7:0 8:0 9:0 10:0 11:0 12:2 13:0 14:0 15:0 16:0 17:0 18:0 19:1 20:0 21:1 22:0 23:0 24:0 25:0 26:0 27:0 28:0 29:0 30:0 31:0 32:0 33:0 34:0 35:0 36:0 37:0 38:0 39:0 40:0 41:0 42:0 43:0 44:0 45:0 46:0 47:0 48:0 49:0 50:0.345 51:0 52:0 53:0 54:0 55:1.666 56:6 57:55 
1 1:0 2:0 3:0 4:0 5:0 6:0 7:0 8:0 9:0 10:0 11:0 12:2.94 13:0 14:0 15:0 16:2.94 17:0 18:0 19:0 20:0 21:0 22:0 23:0 24:0 25:0 26:0 27:0 28:0 29:0 30:0 31:0 32:0 33:0 34:0 35:0 36:0 37:0 38:0 39:2.94 40:0 41:0 42:0 43:0 44:0 45:0 46:0 47:0 48:0 49:0 50:0 51:0 52:0 53:0 54:0 55:1.285 56:3 57:9 
1 1:0 2:0 3:0 4:0 5:2.04 6:0 7:0 8:0 9:0 10:0 11:0 12:1.02 13:1.02 14:0 15:0 16:1.02 17:0 18:0 19:1.02 20:0 21:0 22:0 23:0 24:0 25:0 26:0 27:0 28:0 29:0 30:0 31:0 32:0 33:0 34:0 35:0 36:0 37:0 38:0 39:1.02 40:0 41:0 42:0 43:0 44:0 45:0 46:0 47:0 48:0 49:0 50:0 51:0 52:0 53:0 54:0 55:1.642 56:4 57:23 
1 1:0 2:0 3:0 4:0 5:0 6:0 7:0 8:0 9:0 10:0 11:0 12:0 13:0 14:0 15:0 16:0 17:0 18:0 19:0 20:0 21:0 22:0 23:0 24:0 25:0 26:0 27:0.09 28:0 29:0.19 30:0 31:0 32:0 33:0.09 34:0 35:0 36:0 37:0 38:0 39:0 40:0.09 41:0 42:0 43:0 44:0 45:0 46:0 47:0 48:0 49:0 50:0.046 51:0.341 52:0 53:0 54:0.031 55:4.413 56:28 57:1399 
1 1:4 2:0 3:1 4:0 5:1 6:0 7:0 8:0 9:0 10:0 11:0 12:1 13:0 14:0 15:0 16:0 17:0 18:0 19:0 20:0 21:0 22:0 23:0 24:0 25:0 26:0 27:0 28:0 29:0 30:0 31:0 32:0 33:0 34:0 35:0 36:0 37:0 38:0 39:0 40:0 41:0 42:0 43:0 44:0 45:0 46:0 47:0 48:0 49:0 50:0.168 51:0 52:0.168 53:0 54:0 55:1.459 56:10 57:54 
1 1:0 2:0 3:0 4:0 5:0 6:0 7:0 8:0 9:0 10:0.58 11:0 12:2.33 13:0 14:0 15:0 16:0.58 17:0 18:0 19:1.75 20:0 21:3.5 22:0 23:0 24:0 25:0 26:0.58 27:0 28:0 29:0 30:0 31:0 32:0 33:0 34:0 35:0 36:0 37:0 38:0 39:0 40:0 41:0 42:0 43:0 44:0.58 45:0 46:0 47:0 48:0 49:0 50:0.195 51:0 52:0.097 53:0 54:0 55:2.157 56:11 57:41 
1 1:0 2:0 3:0 4:0 5:0 6:0 7:0 8:0 9:0 10:0 11:0 12:1.41 13:0 14:0 15:0 16:0 17:0.7 18:0 19:1.41 20:0 21:1.41 22:0 23:0 24:0 25:0 26:0 27:0.7 28:0 29:0 30:0 31:0.7 32:0 33:0 34:0 35:0 36:0 37:0 38:0 39:0 40:2.12 41:0 42:0 43:0 44:0 45:0 46:0 47:0 48:0 49:0 50:0.267 51:0.066 52:0 53:0 54:0 55:17.857 56:199 57:375 
1 1:0 2:0 3:0 4:0 5:0 6:0 7:0 8:0 9:0 10:0 11:0 12:0 13:0 14:0 15:0 16:0 17:0 18:0 19:2.63 20:0 21:2.63 22:0 23:0 24:0 25:0 26:0 27:0 28:0 29:0 30:0 31:0 32:0 33:0 34:0 35:0 36:0 37:0 38:0 39:0 40:0 41:0 42:0 43:0 44:0 45:0 46:0 47:0 48:0 49:0 50:0.523 51:0 52:0 53:0 54:0 55:1.6 56:4 57:16 
1 1:0 2:1.16 3:0 4:0 5:0 6:0 7:0 8:1.16 9:0 10:1.16 11:0 12:0 13:0 14:0 15:0 16:0 17:0 18:0 19:0 20:0 21:1.16 22:0 23:0 24:0 25:0 26:0 27:0 28:0 29:0 30:0 31:0 32:0 33:0 34:0 35:0 36:0 37:0 38:0 39:0 40:0 41:0 42:0 43:0 44:0 45:1.16 46:0 47:0 48:0 49:0 50:0 51:0 52:0 53:0 54:0 55:1.25 56:3 57:20 
1 1:0 2:0 3:0.81 4:0 5:0.27 6:0 7:0 8:0 9:0 10:0.27 11:0 12:0.27 13:0.27 14:0 15:0 16:0 17:0 18:0 19:2.16 20:0 21:0.54 22:0 23:0 24:0 25:0 26:0 27:0 28:0 29:0 30:0 31:0 32:0 33:0 34:0 35:0 36:0 37:0 38:0 39:0 40:0 41:0 42:0 43:0 44:0 45:0.54 46:0.27 47:0 48:0 49:0.045 50:0.091 51:0 52:0.045 53:0 54:0 55:2.078 56:47 57:106 
1 1:0 2:0 3:0 4:0 5:0 6:0 7:0.68 8:0 9:0 10:0.68 11:0 12:0 13:0 14:0 15:0 16:0 17:0 18:0 19:1.37 20:0 21:2.06 22:0 23:0 24:0 25:0 26:0 27:0.68 28:0 29:0 30:0 31:0 32:0.68 33:0 34:0.68 35:0 36:0 37:0 38:0 39:0 40:0 41:0 42:0 43:0 44:0 45:0 46:0 47:0 48:0 49:0 50:0.144 51:0 52:0 53:0 54:0.072 55:3.369 56:19 57:155 
1 1:0 2:0 3:0.23 4:0 5:0.46 6:0 7:0 8:0 9:0.23 10:0 11:0 12:0 13:0 14:1.39 15:0 16:0 17:0.23 18:0 19:0 20:0 21:0.69 22:0 23:0 24:0 25:0.46 26:0 27:0 28:0 29:0 30:0 31:0 32:0 33:0 34:0 35:0 36:0 37:0.23 38:0 39:0 40:0 41:0 42:1.86 43:0 44:0 45:0 46:0 47:0 48:0 49:0 50:0.113 51:0 52:0.09 53:0 54:0.203 55:2.43 56:121 57:666 
1 1:0.51 2:0 3:0 4:0 5:0 6:0 7:0 8:0 9:0 10:0 11:0 12:0.25 13:0.51 14:0 15:0 16:0 17:0 18:0 19:2.3 20:0 21:1.53 22:0 23:0 24:0 25:0 26:0 27:0 28:0 29:0 30:0 31:0 32:0 33:0 34:0 35:0 36:0 37:0.25 38:0 39:0 40:0 41:0 42:0 43:0 44:0 45:0.25 46:0 47:0 48:0 49:0 50:0.333 51:0.047 52:0 53:0 54:0 55:1.196 56:5 57:67 
1 1:0 2:0 3:0 4:0 5:0 6:0 7:0 8:0 9:0 10:0 11:0 12:0 13:0 14:0 15:0 16:0 17:0 18:0 19:3.7 20:0 21:1.85 22:0 23:0 24:0 25:0 26:0 27:0 28:0 29:0 30:0 31:0 32:0 33:0 34:0 35:0 36:0 37:0 38:0 39:0 40:0 41:0 42:0 43:0 44:0 45:0.92 46:0.92 47:0 48:0 49:0 50:0 51:0 52:0 53:0.857 54:0 55:2.918 56:47 57:108 
1 1:0.76 2:0 3:0 4:0 5:0 6:0.76 7:0 8:0 9:0 10:0 11:0 12:0 13:0 14:0 15:0 16:0 17:0 18:0 19:3.07 20:0 21:3.07 22:0 23:0 24:0 25:0 26:0 27:0 28:0 29:0 30:0 31:0 32:0 33:0 34:0 35:0 36:0 37:0 38:0 39:0 40:0 41:0 42:0 43:0 44:0 45:0 46:0 47:0 48:0 49:0 50:0.253 51:0 52:0.253 53:0 54:0 55:2.172 56:9 57:63 
1 1:0 2:0 3:0 4:0 5:0 6:0 7:0 8:0 9:0 10:0 11:0 12:0 13:0 14:0 15:0 16:0 17:0 18:0 19:0 20:0 21:0 22:0 23:0 24:0 25:0 26:0 27:0 28:0 29:0 30:0 31:0 32:0 33:0 34:0 35:0 36:0 37:0 38:0 39:0 40:0 41:0 42:0 43:0 44:0 45:0 46:0 47:0 48:0 49:0 50:0 51:0 52:0 53:0 54:0 55:2.09 56:7 57:23 
1 1:0 2:0 3:1.85 4:0 5:0 6:0 7:0 8:0 9:0 10:1.85 11:0 12:1.85 13:1.85 14:0 15:0 16:0 17:0 18:0 19:5.55 20:0 21:0 22:0 23:0 24:0 25:0 26:0 27:0 28:0 29:0 30:0 31:0 32:0 33:0 34:0 35:0 36:0 37:0 38:0 39:0 40:0 41:0 42:0 43:0 44:0 45:0 46:0 47:0 48:0 49:0 50:0 51:0 52:0.692 53:0 54:0 55:1.727 56:5 57:19 
1 1:0.17 2:0 3:0.17 4:0 5:0 6:0 7:0 8:0 9:0.8 10:0 11:0 12:0.26 13:0 14:0 15:0.08 16:0 17:0 18:0 19:0.35 20:0 21:0.17 22:0 23:0 24:0 25:0.62 26:0.71 27:0.08 28:0 29:0 30:0 31:0 32:0 33:0.26 34:0 35:0 36:0.08 37:0.44 38:0 39:0 40:0 41:0 42:0 43:0 44:0 45:0 46:0 47:0 48:0 49:0.253 50:0.168 51:0.084 52:0 53:0.024 54:0 55:4.665 56:81 57:1031 
1 1:0 2:0 3:0 4:0 5:0 6:0 7:0 8:0 9:0 10:0.75 11:0 12:0 13:0 14:0 15:0 16:0 17:0 18:0 19:2.25 20:0 21:0 22:0 23:0 24:0 25:0 26:0 27:0 28:0 29:0 30:0 31:0 32:0 33:0 34:0 35:0 36:0 37:0 38:0 39:0 40:0 41:0 42:0 43:0 44:0 45:0 46:0.75 47:0 48:0 49:0 50:0 51:0 52:0 53:0 54:0 55:3.333 56:51 57:90 
1 1:0 2:0.11 3:0.11 4:0 5:0.34 6:0 7:0 8:0 9:0.11 10:0.69 11:0.34 12:0.23 13:0.11 14:0 15:0 16:0 17:0 18:0.11 19:0.81 20:0 21:0.46 22:0 23:0.34 24:0 25:0 26:0 27:0 28:0 29:0 30:0 31:0 32:0 33:0 34:0 35:0 36:0.11 37:0.23 38:0 39:0.11 40:0 41:0 42:0 43:0 44:0 45:0 46:0.92 47:0 48:0 49:0.017 50:0.153 51:0 52:0.017 53:0.068 54:0.017 55:3.441 56:35 57:499 
1 1:0 2:0 3:0 4:0 5:2.46 6:0 7:0 8:0 9:0 10:1.23 11:0 12:0 13:0 14:0 15:0 16:0 17:0 18:0 19:2.46 20:0 21:1.23 22:0 23:0 24:0 25:0 26:0 27:0 28:0 29:0 30:0 31:0 32:0 33:0 34:0 35:0 36:0 37:0 38:0 39:0 40:0 41:0 42:0 43:0 44:2.46 45:0 46:0 47:0 48:0 49:0.245 50:0 51:0 52:0 53:0 54:0 55:1.166 56:3 57:14 
1 1:0 2:0 3:0 4:0 5:0 6:0 7:0 8:0 9:0 10:0 11:0 12:0 13:0 14:0 15:0 16:0 17:0 18:0 19:0 20:0 21:0 22:0 23:0 24:0 25:0 26:0 27:0 28:0 29:0 30:0 31:0 32:0 33:0 34:0 35:0 36:0 37:0 38:0 39:0 40:0 41:0 42:0 43:0 44:0 45:0 46:0 47:0 48:0 49:0 50:0.769 51:0 52:0 53:0 54:0 55:3.75 56:9 57:15 
1 1:0 2:0 3:0 4:0 5:0 6:0 7:0 8:4.23 9:0 10:0 11:0 12:0 13:0 14:0 15:0 16:0 17:0.84 18:0 19:0 20:0 21:0 22:0 23:0 24:0 25:0 26:0 27:0 28:0 29:0 30:0 31:0 32:0 33:0 34:0 35:0 36:0 37:0.84 38:0 39:0.84 40:0 41:1.69 42:0 43:0.84 44:0 45:0.84 46:1.69 47:0 48:0 49:0 50:0 51:0.126 52:0 53:0 54:0 55:1.605 56:12 57:61 
1 1:0 2:0 3:0 4:0 5:0 6:0 7:0 8:0 9:0 10:0 11:0 12:0 13:0 14:0 15:0 16:0 17:0 18:0 19:6.75 20:0 21:1.35 22:0 23:0 24:0 25:0 26:0 27:0 28:0 29:0 30:0 31:0 32:0 33:0 34:0 35:0 36:0 37:0 38:0 39:0 40:0 41:0 42:0 43:0 44:0 45:1.35 46:0 47:0 48:0 49:0 50:0 51:0 52:0 53:0 54:0 55:1.913 56:6 57:44 
1 1:0 2:0 3:0 4:0 5:0 6:0 7:0 8:0 9:0 10:0 11:0 12:0 13:1.26 14:0 15:0 16:0 17:0 18:0 19:2.53 20:0 21:1.26 22:0 23:0 24:0 25:0 26:0 27:0 28:0 29:0 30:0 31:0 32:0 33:0 34:0 35:0 36:0 37:0 38:0 39:0 40:0 41:0 42:0 43:0 44:0 45:0 46:1.26 47:0 48:0 49:0 50:0 51:0 52:0 53:0 54:0 55:4.352 56:47 57:74 
0.4725520370738126 1:0 2:0 3:1.57 4:0 5:0.22 6:0.22 7:0 8:0 9:0 10:0 11:0 12:0 13:0.22 14:0 15:0 16:0 17:0 18:0 19:2.02 20:0 21:0.22 22:0 23:0 24:0 25:0 26:0 27:0 28:0 29:0 30:0 31:0 32:0 33:0 34:0 35:0 36:0 37:0 38:0 39:0.22 40:0 41:0 42:0 43:0 44:0 45:0.89 46:0 47:0 48:0 49:0 50:0.091 51:0 52:0.045 53:0 54:0 55:1.276 56:16 57:97 
1 1:0 2:0 3:0 4:0 5:0 6:0 7:0 8:0 9:0 10:0 11:0.38 12:0.19 13:0 14:0 15:0 16:0 17:0 18:0 19:1.33 20:0 21:0.38 22:0 23:0 24:0 25:0.19 26:0 27:0 28:0 29:0 30:0 31:0 32:0 33:0 34:0 35:0 36:0 37:0 38:0 39:0 40:0.19 41:0 42:0 43:0 44:0 45:0 46:0 47:0 48:0 49:0 50:0.154 51:0 52:0.03 53:0 54:0.03 55:2.852 56:12 57:388 
1 1:0.07 2:0 3:0.15 4:0 5:1.53 6:0.15 7:0 8:0.46 9:0 10:0 11:0.07 12:0.46 13:0.46 14:0 15:0 16:0 17:0.07 18:0 19:0.76 20:0 21:0.38 22:0 23:0 24:0 25:0.69 26:0 27:0 28:0 29:0 30:0 31:0 32:0 33:0 34:0 35:0 36:0 37:0.15 38:0 39:0 40:0 41:0 42:0.07 43:0 44:0 45:0.61 46:0 47:0 48:0 49:0 50:0.022 51:0 52:0 53:0.033 54:0 55:1.705 56:36 57:220 
1 1:0 2:0 3:0 4:0 5:1.05 6:0 7:0 8:0 9:0 10:0 11:0 12:0 13:0 14:0 15:0 16:0 17:0 18:0 19:0 20:0 21:0 22:0 23:0 24:0 25:0 26:0 27:0 28:0 29:0 30:0 31:0 32:0 33:1.58 34:0 35:0 36:0 37:0 38:0 39:0 40:0 41:0 42:0 43:0 44:0 45:0 46:0 47:0 48:0 49:0 50:0.072 51:0 52:0 53:0 54:0 55:1.486 56:10 57:55 
1 1:0 2:0.35 3:0.35 4:0 5:0 6:0.35 7:0 8:0 9:0 10:0.35 11:0 12:0.71 13:0 14:0 15:0 16:0 17:0 18:0 19:3.58 20:0 21:1.07 22:0 23:0 24:0 25:0 26:0 27:0 28:0 29:0.35 30:0 31:0 32:0 33:0 34:0 35:0 36:0 37:0 38:0 39:0.35 40:0 41:0 42:0 43:0 44:0 45:0 46:0 47:0 48:0 49:0 50:0.12 51:0.06 52:0 53:0 54:0 55:1.787 56:11 57:118 
1 1:0 2:0 3:0.59 4:0 5:0.19 6:0 7:0 8:0 9:0 10:0 11:0 12:0.39 13:0.19 14:0 15:0 16:0.19 17:0.19 18:0.19 19:2.19 20:0 21:0.59 22:0 23:0 24:0 25:0 26:0 27:0 28:0 29:0 30:0 31:0 32:0 33:0 34:0 35:0 36:0 37:0 38:0 39:0 40:0 41:0 42:0 43:0 44:0 45:0.39 46:0.19 47:0 48:0 49:0 50:0.232 51:0 52:0 53:0.038 54:0 55:1.129 56:4 57:96 
1 1:0 2:1.32 3:0 4:0 5:0 6:0 7:0 8:0 9:0.66 10:0.66 11:0 12:0.22 13:0 14:0 15:0 16:0 17:0 18:0.88 19:0.66 20:0 21:0.88 22:0 23:0 24:0 25:1.76 26:0 27:1.54 28:0 29:0 30:0.44 31:0 32:0 33:0.44 34:0 35:0 36:0 37:0 38:0 39:0.44 40:0 41:0 42:0 43:0 44:0 45:0 46:0 47:0 48:0 49:0 50:0.023 51:0 52:0.023 53:0.047 54:0.094 55:8.76 56:161 57:876 
1 1:0 2:0 3:0 4:0 5:1.63 6:0 7:0 8:0 9:0 10:0 11:0 12:0 13:0 14:0 15:0 16:0 17:0 18:0 19:4.91 20:0 21:0 22:0 23:0 24:0 25:0 26:0 27:0 28:0 29:0 30:0 31:0 32:0 33:0 34:0 35:0 36:0 37:0 38:0 39:0 40:0 41:0 42:0 43:0 44:0 45:0 46:0 47:0 48:0 49:0 50:0 51:0 52:0 53:0 54:0 55:1.769 56:5 57:46 
1 1:0 2:0 3:0 4:0 5:0 6:0 7:0 8:0 9:0 10:1.44 11:0 12:0 13:0 14:0 15:0 16:0 17:0 18:0 19:4.34 20:0 21:0 22:0 23:0 24:0 25:0 26:0 27:0 28:0 29:0 30:0 31:0 32:0 33:0 34:0 35:0 36:0 37:0 38:0 39:0 40:0 41:0 42:0 43:0 44:0 45:0 46:2.89 47:0 48:0 49:0 50:0 51:0 52:0.954 53:0 54:0 55:9.125 56:63 57:73 
1 1:0 2:0 3:0 4:0 5:0 6:0.51 7:0 8:0 9:0 10:0 11:0 12:0 13:0 14:0 15:0 16:0 17:0 18:0.51 19:3.06 20:0 21:1.02 22:0 23:0 24:0 25:0 26:0 27:0 28:0 29:0 30:0 31:0 32:0 33:0 34:0 35:0 36:0 37:0 38:0 39:0 40:0 41:0 42:0 43:0 44:0 45:0 46:0.51 47:0 48:0 49:0 50:0.091 51:0 52:0.091 53:0 54:0 55:1.586 56:4 57:46 
1 1:0.08 2:0.08 3:0.25 4:0 5:0 6:0.25 7:0 8:0 9:0.76 10:0 11:0 12:0.25 13:0 14:0 15:0 16:0 17:0 18:0 19:0.33 20:0 21:0.16 22:0 23:0 24:0 25:0.5 26:0.59 27:0.08 28:0 29:0 30:0 31:0 32:0 33:0.42 34:0 35:0 36:0.25 37:0.08 38:0 39:0 40:0 41:0 42:0.08 43:0 44:0 45:0 46:0 47:0 48:0 49:0.148 50:0.136 51:0.045 52:0 53:0.022 54:0 55:3.995 56:55 57:807 
1 1:0.12 2:0 3:0.12 4:0 5:0 6:0 7:0 8:0 9:0 10:0 11:0.12 12:0.38 13:0 14:0 15:0 16:0 17:0.12 18:0 19:1.78 20:0 21:0.51 22:0 23:0 24:0 25:0 26:0 27:0 28:0 29:0 30:0 31:0 32:0 33:0 34:0 35:0 36:0 37:0.12 38:0 39:0 40:0 41:0 42:0.25 43:0 44:0 45:0.12 46:0.63 47:0 48:0 49:0.018 50:0.074 51:0 52:0.055 53:0 54:0.018 55:3.08 56:63 57:419 
0.01013751344979004 1:0 2:14.28 3:0 4:0 5:0 6:0 7:0 8:0 9:0 10:0 11:0 12:0 13:0 14:0 15:0 16:0 17:0 18:0 19:0 20:0 21:0 22:0 23:0 24:0 25:0 26:0 27:0 28:0 29:0 30:0 31:0 32:0 33:0 34:0 35:0 36:0 37:0 38:0 39:0 40:0 41:0 42:0 43:0 44:0 45:0 46:0 47:0 48:0 49:0 50:0 51:0 52:0 53:0 54:0 55:1.8 56:5 57:9 
1 1:0 2:0 3:0 4:0 5:0 6:0 7:0 8:0 9:0 10:2.77 11:0 12:0 13:0 14:0 15:0 16:0 17:0 18:0 19:2.77 20:0 21:5.55 22:0 23:0 24:0 25:0 26:0 27:0 28:0 29:0 30:0 31:0 32:0 33:0 34:0 35:0 36:0 37:0 38:0 39:0 40:0 41:0 42:0 43:0 44:0 45:2.77 46:0 47:0 48:0 49:0 50:0 51:0 52:0.438 53:0 54:0 55:1.214 56:3 57:17 
1 1:0 2:0.68 3:0.34 4:0 5:0 6:0 7:0 8:0.34 9:0 10:0 11:0.34 12:0 13:0 14:0 15:0 16:1.72 17:0 18:0 19:1.03 20:0 21:2.06 22:0 23:0 24:0 25:0 26:0 27:0 28:0 29:0 30:0 31:0 32:0 33:0 34:0 35:0 36:0 37:0 38:0 39:0 40:0.34 41:0 42:0 43:0 44:0 45:0.34 46:0 47:0 48:0 49:0 50:0.046 51:0 52:0 53:0 54:0 55:3.344 56:107 57:194 
1 1:0 2:0 3:0 4:0 5:1.85 6:0 7:0 8:0 9:0 10:0 11:0 12:1.85 13:1.85 14:0 15:0 16:0 17:0 18:0 19:1.85 20:0 21:0 22:0 23:0 24:0 25:0 26:0 27:0 28:0 29:0 30:0 31:0 32:0 33:0 34:0 35:0 36:0 37:0 38:0 39:1.85 40:0 41:0 42:0 43:0 44:0 45:0 46:0 47:0 48:0 49:0 50:0 51:0 52:0 53:0 54:0 55:1.714 56:4 57:12 
1 1:0 2:0 3:0 4:0 5:0 6:0 7:0 8:0 9:0 10:3.7 11:0 12:0 13:0 14:0 15:0 16:0 17:0 18:0 19:3.7 20:0 21:7.4 22:0 23:0 24:0 25:0 26:0 27:0 28:0 29:3.7 30:0 31:0 32:0 33:0 34:0 35:0 36:0 37:0 38:0 39:0 40:0 41:0 42:0 43:0 44:0 45:0 46:0 47:0 48:0 49:0 50:0 51:0 52:0 53:0 54:0 55:2 56:4 57:8 
1 1:0 2:0 3:0 4:0 5:0 6:0 7:0 8:0 9:0 10:0 11:0 12:0 13:0 14:0 15:0 16:0 17:0 18:0 19:5.88 20:0 21:0 22:0 23:0 24:0 25:0 26:0 27:0 28:0 29:0 30:0 31:0 32:0 33:0 34:0 35:0 36:0 37:0 38:0 39:0 40:0 41:0 42:0 43:0 44:0 45:0 46:0 47:0 48:0 49:0 50:0 51:0 52:0 53:0 54:0 55:1 56:1 57:4 
1 1:0 2:0 3:0 4:0 5:0.96 6:0.48 7:0 8:0 9:0.48 10:0 11:0.48 12:0.48 13:0 14:0 15:0 16:1.44 17:0 18:1.92 19:0.96 20:0 21:1.44 22:0 23:0.48 24:0 25:0 26:0 27:0 28:0 29:0 30:0 31:0 32:0 33:0 34:0 35:0 36:0 37:0 38:0 39:0 40:0 41:0 42:0 43:0.48 44:0 45:0 46:0 47:0 48:0 49:0 50:0 51:0 52:0.666 53:0 54:0 55:4.437 56:27 57:142 
1 1:0 2:0 3:0 4:0 5:0 6:0 7:0 8:0 9:0 10:0 11:0 12:0 13:0 14:0 15:0 16:0.38 17:0 18:0.38 19:2.31 20:0 21:0.77 22:0 23:0 24:0 25:0 26:0 27:0 28:0 29:0 30:0 31:0 32:0 33:0 34:0 35:0 36:0 37:0 38:0 39:0 40:0 41:0 42:0 43:0 44:0 45:0.38 46:0 47:0 48:0 49:0 50:0.216 51:0 52:0.162 53:0 54:0.054 55:5.07 56:70 57:289 
1 1:0.11 2:0 3:0.23 4:0 5:0.23 6:0.11 7:0 8:0 9:1.15 10:0 11:0 12:0.34 13:0 14:0 15:0 16:0.11 17:0 18:0 19:0.46 20:0 21:0.23 22:0 23:0 24:0 25:0.57 26:0.69 27:0.11 28:0 29:0 30:0 31:0 32:0 33:0.34 34:0 35:0 36:0.34 37:0.23 38:0 39:0 40:0 41:0 42:0 43:0 44:0 45:0 46:0 47:0 48:0 49:0.048 50:0.194 51:0.032 52:0 53:0.032 54:0 55:3.275 56:33 57:511 
1 1:0 2:0 3:4 4:0 5:0 6:0 7:0 8:0 9:0 10:0 11:0 12:0 13:0 14:0 15:0 16:0 17:0 18:0 19:4 20:0 21:0 22:0 23:0 24:0 25:0 26:0 27:0 28:0 29:0 30:0 31:0 32:0 33:0 34:0 35:0 36:0 37:0 38:0 39:0 40:0 41:0 42:0 43:0 44:0 45:0 46:0 47:0 48:0 49:0 50:0 51:0 52:0 53:0 54:0 55:1 56:1 57:6 
1 1:0 2:0 3:0 4:0 5:0 6:0 7:0 8:0 9:0 10:0 11:0 12:0 13:0 14:0 15:0 16:0 17:0 18:0 19:0 20:0 21:0 22:0 23:0 24:0 25:0 26:0 27:0 28:0 29:0 30:0 31:0 32:0 33:0 34:0 35:0 36:0 37:0 38:0 39:0 40:0 41:0 42:0 43:0 44:0 45:0 46:0 47:0 48:0 49:0 50:0 51:0 52:0 53:0 54:0 55:2.333 56:5 57:7 
1 1:0.43 2:0 3:1.31 4:0 5:0 6:0.43 7:0 8:0 9:0 10:0 11:0 12:0 13:0.87 14:0 15:0 16:0 17:0 18:0 19:0.87 20:0 21:0 22:0 23:0 24:0 25:0 26:0 27:0 28:0 29:0 30:0 31:0 32:0 33:0 34:0 35:0 36:0 37:0 38:0 39:0 40:0 41:0 42:0 43:0 44:0 45:0 46:0.43 47:0 48:0 49:0 50:0 51:0 52:0 53:0 54:0 55:2.137 56:47 57:109 
1 1:0 2:0 3:0.8 4:0 5:2.42 6:0 7:0 8:0 9:0 10:0 11:0 12:0.4 13:0 14:0 15:0 16:0 17:0 18:0.4 19:5.26 20:0 21:1.61 22:0 23:0 24:0 25:0.4 26:0.4 27:0 28:0 29:0 30:0 31:0 32:0 33:0 34:0 35:0 36:0 37:0 38:0 39:0 40:0 41:0 42:0 43:0 44:0 45:1.61 46:0 47:0 48:0 49:0 50:0 51:0 52:0.27 53:0 54:0 55:2.36 56:35 57:59 
1 1:0 2:0 3:0 4:0 5:0 6:0 7:0 8:0 9:0 10:0 11:0 12:0 13:0 14:0 15:0 16:0 17:0 18:0 19:0 20:0 21:0 22:0 23:0 24:0 25:0 26:0 27:0 28:0 29:0 30:0 31:0 32:0 33:0 34:0 35:0 36:0 37:0 38:0 39:0 40:0 41:0 42:0 43:0 44:0 45:0 46:0 47:0 48:0 49:0 50:0 51:0 52:2.272 53:0 54:0 55:1.75 56:7 57:14 
1 1:0 2:0 3:0 4:0 5:0 6:0 7:0 8:0 9:0 10:0.33 11:0 12:0 13:0 14:0 15:0 16:0 17:0 18:0 19:2.34 20:0 21:0.33 22:0 23:0 24:0 25:0 26:0 27:0 28:0 29:0 30:0 31:0 32:0 33:0 34:0 35:0 36:0 37:0 38:0 39:0 40:0 41:0 42:0 43:0 44:0 45:0.33 46:0.33 47:0 48:0 49:0 50:0.06 51:0 52:0.302 53:0 54:0 55:1.562 56:14 57:100 
1 1:0 2:0 3:0 4:0 5:1.4 6:0 7:0 8:0 9:0 10:0 11:0 12:2.81 13:0 14:0 15:0 16:0 17:0 18:0 19:0 20:0 21:0 22:0 23:0 24:0 25:0 26:0 27:0 28:0 29:0 30:0 31:0 32:0 33:0 34:0 35:0 36:0 37:0 38:0 39:0 40:0 41:0 42:0 43:0 44:0 45:0 46:0 47:0 48:0 49:0 50:0 51:0 52:0.239 53:0 54:0 55:1.923 56:7 57:50 
1 1:0 2:0 3:0 4:0 5:0.58 6:0 7:0 8:0 9:0 10:0 11:0 12:0 13:0 14:0 15:0 16:0 17:0 18:0 19:0.87 20:0 21:0.29 22:0 23:0 24:0 25:0.29 26:0.29 27:0.29 28:0.58 29:0 30:0 31:0 32:0 33:0 34:0.29 35:0.58 36:0 37:0 38:0 39:0 40:0 41:0 42:0 43:0 44:0 45:0 46:0 47:0 48:0 49:0 50:0.22 51:0 52:0 53:2.038 54:0 55:13.562 56:351 57:434 
1 1:0 2:0 3:0 4:0 5:0 6:0 7:0 8:0 9:0 10:0 11:0 12:0 13:0 14:0 15:0 16:0 17:0 18:0 19:3.84 20:0 21:0 22:0 23:0 24:0 25:0 26:0 27:0 28:0 29:0 30:0 31:0 32:0 33:0 34:0 35:0 36:0 37:0 38:0 39:0 40:0 41:0 42:0 43:0 44:0 45:0 46:0 47:0 48:0 49:0 50:0 51:0 52:0 53:0 54:0 55:1.8 56:6 57:18 
1 1:0 2:0 3:1.25 4:0 5:0.62 6:0 7:0 8:0 9:0 10:0 11:0 12:1.25 13:0 14:0 15:0 16:1.88 17:0 18:0 19:4.4 20:0 21:0 22:0 23:0 24:1.25 25:0 26:0 27:0 28:0 29:0 30:0 31:0 32:0 33:0 34:0 35:0 36:0 37:0 38:0 39:0 40:0 41:0 42:0 43:0 44:0 45:0 46:0 47:0 48:0 49:0 50:0.327 51:0 52:0 53:0.109 54:0.109 55:1.705 56:9 57:58 
1 1:0.54 2:0 3:0 4:0 5:0 6:0.27 7:0 8:0 9:0 10:0 11:0 12:0 13:0.54 14:0 15:0 16:0 17:0 18:0 19:3.79 20:0 21:0.54 22:0 23:0 24:0 25:0.27 26:0 27:0 28:0 29:0 30:0 31:0.54 32:0 33:0 34:0 35:0.27 36:0 37:0 38:0 39:0 40:0 41:0 42:0 43:0 44:0 45:0 46:0 47:0 48:0 49:0 50:0.433 51:0 52:0 53:0.078 54:0 55:1.859 56:18 57:106 
1 1:0 2:0 3:0 4:0 5:0 6:0 7:0 8:0 9:0 10:0 11:0 12:0 13:0 14:0 15:0 16:0 17:0 18:0 19:1.49 20:0 21:4.47 22:0 23:0 24:0 25:0 26:0 27:1.49 28:0 29:0 30:0 31:0 32:0 33:0 34:0 35:0 36:0 37:0 38:0 39:0 40:0 41:0 42:0 43:0 44:0 45:0 46:0 47:0 48:0 49:0 50:0 51:0 52:0 53:0 54:0 55:1 56:1 57:16 
1 1:0 2:0 3:0.35 4:0 5:0.35 6:0 7:0 8:0 9:0.35 10:0 11:0 12:0 13:0 14:0 15:0 16:0 17:0 18:0 19:1.4 20:0 21:3.5 22:1.05 23:0 24:0 25:0 26:0 27:0 28:0 29:0 30:0 31:0 32:0 33:0 34:0 35:0 36:0 37:0.35 38:0 39:0 40:0 41:0 42:0 43:0 44:0 45:0 46:0.35 47:0 48:0 49:0 50:0.65 51:0 52:0 53:0 54:0.05 55:2.483 56:17 57:226 
1 1:0 2:0 3:0 4:0 5:0 6:0 7:0 8:0 9:5.26 10:0 11:0 12:0 13:0 14:0 15:0 16:0 17:2.63 18:0 19:2.63 20:0 21:5.26 22:0 23:0 24:0 25:0 26:0 27:0 28:0 29:0 30:0 31:0 32:0 33:0 34:0 35:0 36:0 37:0 38:0 39:0 40:0 41:0 42:0 43:0 44:0 45:0 46:0 47:0 48:0 49:0 50:0 51:0 52:0 53:0 54:0 55:2.058 56:11 57:35 
1 1:0 2:0 3:0 4:0 5:0 6:0 7:0 8:0 9:0 10:0 11:0 12:0 13:0 14:0 15:0 16:0 17:0 18:0 19:6.25 20:0 21:4.16 22:0 23:0 24:0 25:0 26:0 27:0 28:0 29:0 30:0 31:0 32:0 33:0 34:0 35:0 36:0 37:0 38:0 39:0 40:0 41:0 42:0 43:0 44:0 45:0 46:0 47:0 48:0 49:0.359 50:0.359 51:0 52:0 53:0 54:0 55:1 56:1 57:1 
1 1:0 2:0 3:0 4:0 5:0 6:0 7:0 8:0 9:0 10:0.57 11:0 12:0 13:0 14:0 15:0 16:0.57 17:0 18:0 19:2.87 20:0 21:4.02 22:0 23:0 24:0 25:0 26:0 27:0 28:0 29:0 30:0 31:0 32:0 33:0 34:0 35:0 36:0 37:0 38:0 39:0 40:0 41:0 42:0 43:0 44:0 45:1.14 46:0 47:0 48:0 49:0 50:0.84 51:0 52:0 53:0 54:0.076 55:3.583 56:31 57:129 
1 1:0.09 2:0.09 3:0.28 4:0 5:0.28 6:0 7:0 8:0.28 9:0 10:0 11:0 12:0.09 13:0.18 14:0 15:0 16:0 17:0.18 18:0.28 19:1.22 20:0 21:0.37 22:0 23:0.09 24:0 25:0 26:0 27:0 28:0 29:0 30:0 31:0 32:0 33:0 34:0 35:0 36:0.09 37:0.28 38:0 39:0 40:0.09 41:0 42:0 43:0 44:0.28 45:0.37 46:0.09 47:0 48:0 49:0.014 50:0.084 51:0 52:0.042 53:0 54:0.042 55:1.877 56:18 57:552 
1 1:0 2:0 3:0 4:0 5:0 6:0 7:0 8:0 9:0 10:0 11:0 12:0 13:0 14:0 15:0 16:0 17:0 18:0 19:3.33 20:0 21:6.66 22:0 23:0 24:0 25:0 26:0 27:0 28:0 29:0 30:0 31:0 32:0 33:0 34:0 35:0 36:0 37:0 38:0 39:0 40:0 41:0 42:0 43:0 44:0 45:0 46:0 47:0 48:0 49:0 50:0 51:0 52:0 53:0 54:0 55:1.3 56:3 57:13 
0.3901923336374445 1:0 2:0 3:0 4:0 5:0 6:0 7:0 8:0 9:0 10:0 11:0 12:0 13:0 14:0 15:0 16:0 17:0 18:0 19:3.57 20:0 21:0 22:0 23:0 24:0 25:0 26:0 27:0 28:0 29:0 30:0 31:0 32:0 33:0 34:0 35:3.57 36:0 37:0 38:0 39:0 40:0 41:0 42:0 43:0 44:0 45:0 46:0 47:0 48:0 49:0 50:0 51:0 52:0.523 53:0 54:0 55:2.272 56:9 57:25 
1 1:0 2:0 3:0 4:0 5:0 6:0 7:0 8:0 9:0 10:0 11:0 12:0 13:0 14:0 15:0 16:0 17:0 18:0 19:0 20:0 21:0 22:0 23:2.12 24:0 25:0 26:0 27:0 28:0 29:0 30:0 31:0 32:0 33:0 34:0 35:0 36:0 37:0 38:0 39:0 40:0 41:0 42:0 43:0 44:0 45:0 46:0 47:0 48:0 49:0 50:1.239 51:0 52:0 53:0 54:0 55:2.166 56:5 57:13 
1 1:0 2:0 3:0.09 4:0 5:0 6:0 7:0 8:0 9:0 10:0 11:0 12:0.47 13:0.66 14:0 15:0 16:0.09 17:0 18:0 19:1.23 20:0 21:0.09 22:0 23:0 24:0 25:0 26:0 27:0 28:0 29:0 30:0 31:0 32:0 33:0 34:0 35:0 36:0 37:0 38:0 39:0 40:0 41:0 42:0 43:0 44:0 45:0.37 46:0.09 47:0 48:0 49:0 50:0.033 51:0 52:0 53:0 54:0 55:1.536 56:47 57:192 
1 1:0 2:0 3:0.36 4:0 5:0.73 6:0 7:0 8:0 9:0 10:0 11:0 12:0.36 13:0.18 14:0 15:0 16:0.36 17:0 18:0 19:1.28 20:0 21:0.36 22:0 23:0 24:0 25:0.36 26:1.28 27:0 28:0 29:0 30:0 31:0 32:0 33:0 34:0 35:0 36:0 37:0.36 38:0 39:0 40:0 41:0 42:0 43:0.18 44:0 45:0.18 46:0 47:0 48:0 49:0.027 50:0 51:0 52:0.055 53:0 54:0 55:3.176 56:51 57:270 
0.569450616373234 1:0.01 2:0 3:0.03 4:0 5:0.33 6:0.03 7:0 8:0 9:0.23 10:0.01 11:0 12:0.09 13:0 14:0 15:0 16:0.13 17:0 18:0.01 19:0.07 20:0 21:0.05 22:0 23:0 24:0 25:0.53 26:0.55 27:0.01 28:0 29:0 30:0 31:0 32:0 33:0.47 34:0 35:0.01 36:0.01 37:0.45 38:0.01 39:0 40:0 41:0 42:0 43:0.01 44:0 45:0 46:0 47:0.05 48:0 49:0.2 50:0.127 51:0.064 52:0 53:0.005 54:0 55:2.589 56:38 57:2349 
1 1:0 2:0 3:0 4:0 5:0 6:0 7:0 8:0 9:0 10:0 11:0 12:0 13:0 14:0 15:0 16:0 17:0 18:0 19:14.28 20:0 21:7.14 22:0 23:0 24:0 25:0 26:0 27:0 28:0 29:0 30:0 31:0 32:0 33:0 34:0 35:0 36:0 37:0 38:0 39:0 40:0 41:0 42:0 43:0 44:0 45:7.14 46:0 47:0 48:0 49:0 50:0 51:0 52:0 53:0 54:0 55:1 56:1 57:3 
1 1:0 2:0 3:0 4:0 5:0 6:0 7:0.88 8:0 9:0 10:0 11:0 12:0.88 13:0 14:0 15:0 16:0 17:0 18:0 19:0.88 20:0 21:0 22:0 23:0 24:0 25:0 26:0 27:0 28:0 29:0 30:0 31:0 32:0 33:1.76 34:0 35:0 36:0 37:0 38:0 39:0 40:0 41:0 42:0 43:0 44:0 45:0 46:0 47:0 48:0 49:0 50:0.133 51:0 52:0 53:0 54:0 55:1.629 56:9 57:44 
1 1:0 2:0 3:0.29 4:0 5:0.29 6:0 7:0 8:0 9:0.29 10:0 11:0 12:0.29 13:0 14:1.19 15:0 16:0 17:0.29 18:0 19:0.29 20:0 21:0.29 22:0 23:0 24:0 25:0 26:0 27:0 28:0.29 29:0 30:0 31:0.29 32:0 33:0 34:0 35:0.29 36:0 37:0.29 38:0 39:0 40:0 41:0 42:0.89 43:0 44:0 45:0 46:0 47:0 48:0 49:0 50:0.156 51:0.031 52:0.376 53:0 54:0.125 55:3.338 56:157 57:611 
1 1:0 2:0 3:3.38 4:0 5:0 6:0 7:0 8:0 9:0 10:0 11:0 12:0 13:0 14:0 15:0 16:0 17:0 18:0 19:0 20:0 21:1.69 22:0 23:0 24:0 25:0 26:0 27:0 28:0 29:0 30:0 31:0 32:0 33:0 34:0 35:0 36:0 37:0 38:0 39:0 40:0 41:0 42:0 43:0 44:0 45:0 46:0 47:0 48:0 49:0 50:0 51:0 52:0 53:0 54:0 55:1.222 56:3 57:11 
1 1:0 2:0 3:1 4:0 5:0 6:0 7:0 8:0 9:0 10:0.25 11:0.25 12:0.5 13:0 14:0 15:0 16:0 17:0 18:0 19:1 20:0 21:0.75 22:0 23:0 24:0 25:1 26:0.5 27:0 28:0 29:0.5 30:0.25 31:0 32:0 33:0 34:0 35:0 36:0 37:0.75 38:0 39:0 40:0 41:0 42:0 43:0 44:0 45:0 46:0 47:0 48:1 49:0.457 50:0.294 51:0 52:0 53:0 54:0 55:4.379 56:208 57:508 
1 1:0 2:0 3:0 4:0 5:0 6:0 7:0 8:0 9:0 10:0 11:0 12:0.58 13:0 14:0 15:0 16:0.58 17:0 18:0 19:2.9 20:0 21:0.58 22:0.58 23:0 24:0 25:0 26:0 27:0 28:0 29:0 30:0 31:0 32:0 33:0 34:0 35:0 36:0 37:0 38:0 39:0 40:0 41:0 42:0 43:0 44:0 45:0 46:0.58 47:0 48:0 49:0 50:0.185 51:0 52:0 53:0 54:0.092 55:2.468 56:11 57:79 
1 1:0.12 2:0 3:0.12 4:0 5:0.12 6:0.12 7:0 8:0 9:1.08 10:0 11:0 12:0.36 13:0 14:0 15:0 16:0 17:0 18:0 19:0.48 20:0 21:0.24 22:0 23:0 24:0 25:0.6 26:0.72 27:0.12 28:0 29:0 30:0 31:0 32:0 33:0.36 34:0 35:0 36:0 37:0.12 38:0 39:0 40:0 41:0 42:0 43:0 44:0 45:0 46:0 47:0 48:0 49:0.117 50:0.151 51:0.033 52:0 53:0.033 54:0 55:4.134 56:78 57:645 
1 1:0 2:0 3:0 4:0 5:0 6:0 7:0 8:0 9:0 10:0 11:0 12:0 13:0 14:0 15:0 16:3.7 17:0 18:0 19:0 20:0 21:0 22:0 23:0 24:0 25:0 26:0 27:0 28:0 29:0 30:0 31:0 32:0 33:0 34:0 35:0 36:0 37:0 38:7.4 39:0 40:0 41:0 42:0 43:0 44:0 45:0 46:0 47:0 48:0 49:0 50:0 51:0 52:0 53:0 54:0 55:1.272 56:3 57:14 
1 1:0 2:0 3:0.73 4:0 5:0.36 6:0.36 7:0 8:0 9:0 10:0 11:0 12:0 13:0 14:0 15:0 16:0 17:0 18:0 19:2.19 20:0 21:0 22:0 23:0 24:0 25:0 26:0 27:0 28:0 29:0 30:0 31:0 32:0 33:0 34:0 35:0 36:0 37:0 38:0 39:0 40:0 41:0 42:0 43:0 44:0 45:0 46:0 47:0 48:0 49:0 50:0 51:0 52:6.387 53:0 54:0 55:1.131 56:4 57:69 
1 1:0 2:0 3:0 4:0 5:0 6:0 7:0 8:0 9:0 10:0.79 11:0 12:0.79 13:0 14:0 15:0 16:0 17:0 18:0.79 19:1.58 20:0 21:2.38 22:0 23:0 24:0 25:0 26:0 27:0 28:0 29:0 30:0 31:0 32:0 33:0 34:0 35:0 36:0 37:0.79 38:0 39:0 40:0 41:0 42:0 43:0 44:0 45:1.58 46:0 47:0 48:0 49:0.135 50:0.405 51:0 52:0.27 53:0 54:0 55:1.608 56:13 57:37 
1 1:0 2:0 3:0 4:0 5:0 6:0 7:0 8:0 9:0 10:0 11:0 12:0 13:0 14:0 15:0 16:0 17:0 18:2.63 19:5.26 20:0 21:0 22:0 23:0 24:0 25:0 26:0 27:0 28:0 29:0 30:0 31:0 32:0 33:0 34:0 35:0 36:0 37:0 38:0 39:0 40:0 41:0 42:0 43:0 44:0 45:0 46:0 47:0 48:0 49:0 50:0 51:0 52:0 53:0 54:0 55:1.625 56:3 57:13 
1 1:0 2:0 3:0 4:0 5:0 6:0 7:0 8:0 9:0 10:0 11:0 12:0 13:0 14:0 15:0 16:0 17:0 18:0 19:6.66 20:0 21:0 22:0 23:0 24:0 25:0 26:0 27:0 28:0 29:0 30:0 31:0 32:0 33:0 34:0 35:0 36:0 37:0 38:0 39:0 40:0 41:0 42:0 43:0 44:0 45:6.66 46:0 47:0 48:0 49:0 50:0 51:0 52:32.478 53:0 54:0 55:1.666 56:3 57:5 
1 1:0 2:0 3:0 4:0 5:0 6:0 7:0 8:0 9:0 10:0 11:0 12:0 13:0 14:0 15:0 16:0 17:0 18:0 19:0 20:0 21:0 22:0 23:0 24:0 25:0 26:0 27:0 28:0 29:0 30:0 31:0 32:0 33:0 34:0 35:0 36:0 37:0 38:0 39:0 40:0 41:0 42:0 43:0 44:0 45:0 46:0 47:0 48:0 49:0 50:0 51:0 52:1.315 53:0 54:0 55:1 56:1 57:7 
1 1:0.4 2:0 3:0.81 4:0 5:0 6:0 7:0 8:0 9:0 10:0 11:0 12:0 13:0 14:0 15:0 16:0.4 17:0 18:0.81 19:1.22 20:0 21:0.81 22:0 23:0 24:0 25:0 26:0 27:0 28:0 29:0 30:0 31:0 32:0 33:0 34:0 35:0 36:0 37:0 38:0 39:0 40:0 41:0 42:0 43:0 44:0 45:1.22 46:0 47:0 48:0 49:0 50:0.223 51:0 52:0 53:0 54:0.055 55:4.75 56:70 57:266 
1 1:0 2:0 3:2.94 4:0 5:0 6:0 7:0 8:0 9:0 10:0 11:0 12:0 13:0 14:0 15:0 16:0 17:0 18:0 19:2.94 20:0 21:0 22:0 23:0 24:0 25:0 26:0 27:0 28:0 29:0 30:0 31:0 32:0 33:0 34:0 35:0 36:0 37:0 38:0 39:0 40:0 41:0 42:0 43:0 44:0 45:0 46:0 47:0 48:0 49:0 50:0 51:0 52:0.505 53:0 54:0 55:2.375 56:4 57:19 
1 1:0 2:0 3:0 4:0 5:0 6:0.37 7:0 8:0 9:0 10:0 11:0 12:0 13:0 14:0 15:0 16:0 17:0 18:0 19:3.73 20:0 21:0.37 22:0 23:0 24:0 25:0 26:0 27:0 28:0 29:0 30:0 31:0 32:0 33:0 34:0 35:0 36:0 37:0 38:0 39:0 40:0 41:0 42:0 43:0 44:0 45:1.11 46:0 47:0 48:0 49:0 50:0.066 51:0 52:0.066 53:0 54:0 55:1.555 56:4 57:14 
1 1:0 2:0 3:0 4:0 5:0 6:0 7:0 8:2.63 9:0 10:0 11:0 12:0 13:0 14:0 15:0 16:0 17:0 18:0 19:0.37 20:0 21:0 22:0 23:0 24:0 25:0 26:0 27:0 28:0 29:0 30:0 31:0 32:0 33:0 34:0 35:0 36:0 37:0.37 38:0 39:0.37 40:0 41:0.75 42:0 43:0.37 44:0 45:0.75 46:1.12 47:0 48:0 49:0 50:0 51:0.063 52:0 53:0 54:0 55:2.023 56:14 57:85 
1 1:0 2:0 3:0.33 4:0 5:0 6:0.49 7:0 8:1.32 9:0.16 10:5.12 11:0 12:0 13:0 14:0.66 15:0 16:0 17:0.33 18:0 19:0.33 20:0 21:0 22:0 23:0 24:0 25:0 26:0 27:0 28:0 29:0 30:0 31:0 32:0 33:0 34:0 35:0.16 36:0 37:0 38:0 39:0 40:0 41:0 42:0.16 43:0 44:0 45:0 46:0.33 47:0 48:0 49:0 50:0.07 51:0.023 52:0 53:0 54:0.023 55:1.552 56:10 57:149 
1 1:0 2:0 3:0 4:0 5:0 6:0 7:0 8:0 9:0 10:0 11:0 12:0 13:0 14:0 15:0 16:0 17:0 18:0 19:0 20:0 21:0 22:0 23:0 24:0 25:0 26:0 27:0 28:0 29:0 30:0 31:0 32:0 33:0 34:0 35:0 36:0 37:0 38:0 39:0 40:0 41:0 42:0 43:0 44:0 45:0 46:0 47:0 48:0 49:0 50:0.17 51:0 52:0 53:0 54:0 55:2.094 56:26 57:111 
1 1:0 2:0 3:1.58 4:0 5:0 6:0 7:0 8:0 9:0 10:0 11:0 12:0 13:0 14:0 15:0 16:0 17:0 18:0 19:3.17 20:0 21:4.76 22:0 23:0 24:0 25:0 26:0 27:0 28:0 29:0 30:0 31:0 32:0 33:0 34:0 35:0 36:0 37:0 38:0 39:0 40:0 41:0 42:0 43:0 44:0 45:0 46:0 47:0 48:0 49:0 50:0 51:0 52:0 53:0 54:0 55:1.23 56:4 57:16 
1 1:0 2:0 3:0 4:0 5:0 6:0 7:0 8:0 9:0 10:0 11:0 12:0 13:0 14:0 15:0 16:0 17:0 18:0 19:4.44 20:0 21:4.44 22:0 23:0 24:0 25:0 26:0 27:0 28:0 29:0 30:0 31:0 32:0 33:0 34:0 35:0 36:0 37:0 38:0 39:0 40:0 41:0 42:0 43:0 44:0 45:2.22 46:0 47:0 48:0 49:0 50:0 51:0 52:0.383 53:0 54:0 55:1.333 56:3 57:8 
1 1:0 2:0 3:0 4:0 5:0 6:0 7:0 8:0 9:0 10:0 11:0 12:0.6 13:0 14:0 15:0 16:0 17:0 18:0 19:1.2 20:0 21:0 22:0 23:0 24:0 25:0 26:0 27:0 28:0 29:0 30:0 31:0 32:0 33:0 34:0 35:0 36:0 37:0 38:0 39:0 40:0 41:0 42:0 43:0 44:0 45:0 46:0 47:0 48:0 49:0 50:0 51:0 52:0.21 53:0 54:0 55:1.454 56:5 57:32 
1 1:0 2:0 3:0.57 4:0 5:0.85 6:0 7:0 8:0 9:0.28 10:0 11:0.57 12:0.28 13:0 14:0 15:0 16:0.85 17:0 18:0.57 19:1.42 20:0 21:0.85 22:0 23:0 24:0 25:0 26:0 27:0 28:0 29:0 30:0 31:0 32:0 33:0 34:0 35:0 36:0 37:0 38:0 39:0 40:0 41:0 42:0 43:0 44:0 45:0 46:0 47:0 48:0 49:0.08 50:0 51:0 52:0.282 53:0.242 54:0 55:2.46 56:26 57:278 
1 1:0 2:0 3:0 4:0 5:0 6:0 7:0 8:0 9:0 10:0 11:0 12:0 13:0 14:0 15:0 16:0 17:0 18:0 19:7.31 20:0 21:0 22:0 23:0 24:0 25:0 26:0 27:0 28:0 29:0 30:0 31:0 32:0 33:0 34:0 35:0 36:0 37:0 38:0 39:0 40:0 41:0 42:0 43:0 44:0 45:0 46:0 47:0 48:0 49:0 50:0 51:0 52:0 53:0 54:0 55:1.714 56:4 57:12 
1 1:0 2:0 3:0 4:0 5:0 6:1.2 7:0 8:0 9:0 10:0 11:0 12:0 13:0 14:0 15:0 16:0 17:0 18:0 19:4.81 20:0 21:3.61 22:0 23:0 24:0 25:0 26:0 27:0 28:0 29:0 30:0 31:0 32:0 33:0 34:0 35:0 36:0 37:0 38:0 39:0 40:0 41:0 42:0 43:0 44:0 45:0 46:1.2 47:0 48:0 49:0 50:0 51:0 52:0 53:0 54:0 55:1.3 56:3 57:13 
1 1:0 2:2.07 3:0 4:0 5:0 6:0 7:0 8:0 9:1.55 10:0 11:0 12:0.51 13:0 14:0 15:0 16:0 17:0 18:0 19:1.03 20:0 21:0 22:0 23:0 24:0 25:0.51 26:0 27:2.59 28:0 29:0 30:0 31:0 32:0 33:0 34:0 35:0 36:0 37:0 38:0 39:0 40:0 41:0 42:0 43:0 44:0 45:0 46:0 47:0 48:0 49:0 50:0.07 51:0 52:0 53:0.141 54:0.211 55:25.812 56:104 57:413 
0.1292489161516714 1:0 2:14.28 3:0 4:0 5:0 6:0 7:0 8:0 9:0 10:0 11:0 12:0 13:0 14:0 15:0 16:0 17:0 18:0 19:0 20:0 21:0 22:0 23:0 24:0 25:0 26:0 27:0 28:0 29:0 30:0 31:0 32:0 33:0 34:0 35:0 36:0 37:0 38:0 39:0 40:0 41:0 42:0 43:0 44:0 45:0 46:0 47:0 48:0 49:0 50:0 51:0 52:0 53:0 54:0 55:1.8 56:5 57:9 
1 1:0.39 2:0 3:0 4:0 5:1.17 6:0 7:0 8:0 9:0 10:0.39 11:0 12:1.17 13:0 14:0 15:0 16:0 17:0 18:0.39 19:3.12 20:0.39 21:1.17 22:0 23:0 24:0 25:0 26:0 27:0.39 28:0.78 29:0 30:0 31:0 32:0 33:0 34:0 35:0 36:0 37:0 38:0 39:0 40:0.39 41:0 42:0 43:0 44:0 45:0 46:0 47:0 48:0 49:0.07 50:0.07 51:0 52:0.07 53:0 54:0 55:2.069 56:13 57:89 
1 1:0.04 2:0.08 3:0.15 4:0 5:0.04 6:0.04 7:0 8:0.04 9:0.04 10:0.08 11:0 12:0.41 13:0.06 14:0 15:0 16:0 17:0.06 18:0.15 19:0.6 20:0 21:0.34 22:0 23:0.02 24:0 25:0 26:0 27:0 28:0 29:0.02 30:0 31:0 32:0 33:1.67 34:0 35:0 36:0.19 37:0.82 38:0.02 39:0.04 40:0 41:0.02 42:0.02 43:0.08 44:0.02 45:0 46:0.26 47:0.04 48:0.54 49:0.005 50:0.213 51:0.002 52:0.031 53:0.039 54:0.008 55:2.246 56:54 57:3003 
1 1:0 2:0 3:0 4:0 5:0 6:0 7:0 8:5.88 9:0 10:0 11:0 12:0 13:0 14:0 15:0 16:0 17:0 18:0 19:0 20:0 21:0 22:0 23:0 24:0 25:0 26:0 27:0 28:0 29:0 30:0 31:0 32:0 33:0 34:0 35:0 36:0 37:0 38:0 39:0 40:0 41:0 42:0 43:0 44:0 45:0 46:0 47:0 48:0 49:0 50:0 51:0 52:0 53:0 54:0 55:1 56:1 57:10 
1 1:0.55 2:0 3:0 4:0 5:0 6:0 7:0 8:0 9:0 10:0 11:0 12:0 13:0 14:0 15:0 16:0 17:0 18:0 19:2.2 20:0 21:0.55 22:0 23:0 24:0 25:0 26:0 27:0 28:0 29:0 30:0 31:0 32:0 33:0 34:0 35:0 36:0 37:0 38:0 39:0 40:0 41:0 42:0 43:0 44:0 45:1.1 46:0 47:0 48:0 49:0 50:0 51:0 52:0.633 53:0 54:0 55:1.386 56:11 57:61 
1 1:0 2:0.34 3:0 4:0 5:0.68 6:0 7:0.68 8:0 9:0 10:0.34 11:0.34 12:0 13:0 14:0 15:0 16:0.34 17:0 18:1.36 19:3.42 20:0 21:2.73 22:0 23:0 24:0 25:0.34 26:0.34 27:0 28:0 29:0 30:0 31:0 32:0 33:0.34 34:0 35:0 36:0 37:0 38:0 39:0 40:0 41:0 42:0 43:0 44:0 45:0 46:0 47:0 48:0 49:0 50:0 51:0 52:0.048 53:0.048 54:0 55:1.411 56:15 57:96 
1 1:0 2:0.52 3:0.52 4:0 5:0 6:1.57 7:0 8:0 9:0 10:0 11:0 12:0 13:0 14:0 15:0 16:0.52 17:0 18:0.52 19:1.04 20:0 21:0.52 22:0 23:0 24:0 25:0 26:0 27:0 28:0 29:0.52 30:0 31:0 32:0 33:0 34:0 35:0 36:0 37:0 38:0 39:0 40:0 41:0 42:0.52 43:0 44:0.52 45:0 46:0 47:0 48:0 49:0 50:0.087 51:0 52:0.175 53:0 54:0 55:1.093 56:3 57:35 
1 1:0.05 2:0 3:0.1 4:0 5:0 6:0.1 7:0 8:0.05 9:0.49 10:0 11:0 12:0.27 13:0 14:0 15:0 16:0 17:0.38 18:0 19:0.21 20:0 21:0.1 22:0 23:0 24:0 25:0.49 26:0.54 27:0.05 28:0 29:0 30:0 31:0 32:0 33:0.38 34:0 35:0 36:0.38 37:0.21 38:0 39:0 40:0 41:0 42:0 43:0 44:0 45:0 46:0 47:0 48:0 49:0.308 50:0.136 51:0.078 52:0 53:0.014 54:0 55:3.715 56:107 57:1386 
1 1:0 2:0 3:0 4:0 5:0 6:0 7:0 8:0 9:0 10:0 11:0 12:0 13:1.47 14:0 15:0 16:0 17:0 18:0 19:2.94 20:0 21:2.94 22:0 23:0 24:0 25:0 26:0 27:0 28:0 29:0 30:0 31:0 32:0 33:0 34:0 35:0 36:0 37:0 38:0 39:0 40:0 41:0 42:0 43:0 44:0 45:0 46:1.47 47:0 48:0 49:0 50:0 51:0 52:0 53:0 54:0 55:4.312 56:47 57:69 
1 1:0 2:0 3:0 4:0 5:0 6:0 7:0 8:0 9:0 10:0 11:0 12:0 13:0 14:0 15:0 16:0 17:0 18:0 19:0 20:0 21:0 22:0 23:0 24:0 25:0 26:0 27:0 28:0 29:0 30:0 31:0 32:0 33:0 34:0 35:0 36:0 37:0 38:0 39:0 40:0 41:0 42:0 43:0 44:0 45:0 46:0 47:0 48:0 49:0 50:0 51:0 52:0 53:0 54:0 55:2.25 56:6 57:9 
1 1:1.47 2:1.47 3:0 4:0 5:0 6:0 7:0 8:0 9:0 10:1.47 11:0 12:0 13:0 14:0 15:0 16:0 17:0 18:0 19:1.47 20:0 21:0 22:0 23:0 24:0 25:0 26:0 27:0 28:0 29:0 30:0 31:0 32:0 33:0 34:0 35:0 36:0 37:0 38:0 39:0 40:0 41:0 42:0 43:0 44:0 45:0 46:0 47:0 48:0 49:0 50:0 51:0 52:0 53:0 54:0 55:2.391 56:21 57:55 
1 1:0 2:0 3:0 4:0 5:0 6:0 7:0 8:0 9:0 10:0 11:0 12:1.69 13:0 14:0 15:0 16:0 17:0 18:1.69 19:0 20:0 21:1.69 22:0 23:0 24:0 25:0 26:0 27:0 28:0 29:0 30:0 31:0 32:0 33:0 34:0 35:0 36:0 37:0 38:0 39:0 40:0 41:0 42:0 43:0 44:0 45:1.69 46:0 47:0 48:0 49:0 50:0 51:0 52:0.278 53:0 54:0 55:1.777 56:4 57:32 
1 1:0 2:0 3:0.67 4:0 5:0 6:0 7:0 8:0 9:0 10:0 11:0 12:1.01 13:0.33 14:0 15:0 16:0 17:0 18:0 19:1.35 20:0 21:0.33 22:0 23:0.33 24:0 25:0 26:0 27:0 28:0 29:0 30:0 31:0 32:0 33:0 34:0 35:0 36:0 37:0 38:0 39:0 40:0 41:0 42:0 43:0 44:0 45:0.33 46:0.33 47:0 48:0 49:0 50:0 51:0 52:0.174 53:0 54:0 55:2.071 56:47 57:116 
1 1:0 2:0.61 3:0 4:0 5:1.22 6:0 7:0 8:0 9:0 10:3.68 11:0 12:0 13:0 14:0 15:0.61 16:0 17:0 18:0 19:1.84 20:0 21:1.84 22:0 23:0 24:0 25:0.61 26:0.61 27:0 28:0 29:0 30:2.45 31:0 32:0 33:0 34:0 35:0 36:0 37:0.61 38:0 39:0 40:0 41:0 42:0 43:0 44:0 45:0 46:0 47:0 48:0 49:0 50:0 51:0 52:0 53:0 54:0 55:1.476 56:8 57:62 
1 1:0 2:0 3:0.36 4:0 5:0.12 6:0.24 7:0 8:0 9:0 10:0.24 11:0 12:0 13:0.24 14:0 15:0 16:0 17:0 18:0 19:1.58 20:0 21:0.12 22:0 23:0 24:0 25:0 26:0 27:0 28:0 29:0 30:0 31:0 32:0 33:0 34:0 35:0 36:0 37:0 38:0 39:0 40:0 41:0 42:0 43:0.12 44:0 45:0.12 46:0.24 47:0 48:0 49:0 50:0.067 51:0.022 52:0 53:0 54:0 55:1.433 56:12 57:76 
1 1:0 2:0 3:0 4:0 5:0.78 6:0 7:0 8:0 9:0.78 10:0.78 11:0 12:0.78 13:0 14:0 15:0 16:0.78 17:0 18:0 19:1.56 20:0 21:0 22:0 23:0 24:0 25:0.78 26:0.78 27:0 28:1.56 29:0 30:0 31:0 32:0 33:0 34:0 35:0 36:0 37:0 38:0 39:0 40:0 41:0 42:0 43:0 44:0 45:0 46:0 47:0 48:0 49:0 50:0.544 51:0 52:0 53:0.136 54:0 55:2.62 56:11 57:76 
1 1:0.29 2:0 3:0.44 4:0 5:0.73 6:0 7:0 8:0 9:0 10:0 11:0 12:0.58 13:0 14:0 15:0 16:0.14 17:0 18:0 19:0.73 20:0.14 21:0.29 22:0 23:0 24:0 25:0 26:0 27:0 28:0 29:0 30:0 31:0 32:0 33:0 34:0 35:0 36:0 37:0.29 38:0 39:0 40:0 41:0 42:0.14 43:0 44:0.14 45:0 46:0 47:0 48:1.32 49:0.02 50:0.321 51:0.18 52:0.14 53:0 54:0 55:1.891 56:24 57:522 
1 1:0 2:0 3:0.24 4:0 5:0 6:0 7:0 8:0 9:0 10:0.48 11:0 12:0.24 13:0 14:0 15:0 16:0 17:0.48 18:0.24 19:0.72 20:0.48 21:0.72 22:0 23:0 24:0 25:1.69 26:0 27:0 28:0 29:0 30:0 31:0 32:0 33:0 34:0 35:0 36:0 37:0 38:0 39:0 40:0 41:0 42:0 43:0 44:0 45:0 46:0 47:0 48:0 49:0 50:0.034 51:0 52:0 53:0 54:0 55:3.202 56:87 57:285 
0.001545672072164233 1:0 2:14.28 3:0 4:0 5:0 6:0 7:0 8:0 9:0 10:0 11:0 12:0 13:0 14:0 15:0 16:0 17:0 18:0 19:0 20:0 21:0 22:0 23:0 24:0 25:0 26:0 27:0 28:0 29:0 30:0 31:0 32:0 33:0 34:0 35:0 36:0 37:0 38:0 39:0 40:0 41:0 42:0 43:0 44:0 45:0 46:0 47:0 48:0 49:0 50:0 51:0 52:0 53:0 54:0 55:1.8 56:5 57:9 
1 1:0 2:0 3:3.61 4:0 5:0 6:0.6 7:0 8:0 9:0 10:0 11:0 12:0 13:0 14:0 15:0 16:0 17:0 18:0 19:3.61 20:0 21:0 22:0 23:0 24:0 25:0 26:0 27:0 28:0 29:0 30:0 31:0 32:0 33:0 34:0 35:0 36:0 37:0 38:0 39:0 40:0 41:0 42:0 43:0 44:0 45:0.6 46:0 47:0 48:0 49:0 50:0 51:0 52:0.12 53:0 54:0.12 55:1.96 56:9 57:49 
1 1:0 2:0 3:0 4:0 5:0 6:0 7:0 8:0 9:0 10:0 11:0 12:1.61 13:0 14:0 15:0 16:0 17:0 18:1.61 19:3.22 20:0 21:1.61 22:0 23:0 24:0 25:0 26:0 27:0 28:0 29:0 30:0 31:0 32:0 33:0 34:0 35:0 36:0 37:0 38:0 39:0 40:0 41:0 42:0 43:0 44:0 45:0 46:0 47:0 48:0 49:0 50:0 51:0 52:0 53:0 54:0 55:1.181 56:3 57:13 
1 1:0 2:0 3:0.46 4:0 5:0.23 6:0.23 7:0 8:0 9:0 10:0 11:0 12:0 13:0 14:0 15:0 16:0.23 17:0 18:0 19:1.63 20:0 21:0.23 22:0 23:0 24:0 25:0 26:0 27:0 28:0 29:0 30:0 31:0 32:0 33:0 34:0 35:0 36:0 37:0 38:0 39:0 40:0 41:0.46 42:0 43:0 44:0 45:0 46:0.23 47:0 48:0 49:0 50:0.082 51:0 52:0.082 53:0 54:0 55:1.256 56:5 57:98 
1 1:0 2:0 3:0 4:0 5:0 6:0 7:0 8:0 9:0 10:0 11:0 12:0 13:0 14:0 15:0 16:0 17:0 18:0 19:5.55 20:0 21:0 22:0 23:0 24:0 25:0 26:0 27:0 28:0 29:0 30:0 31:0 32:0 33:0 34:0 35:0 36:0 37:0 38:0 39:0 40:0 41:0 42:0 43:0 44:0 45:0 46:0 47:0 48:0 49:0 50:0 51:0 52:0 53:0 54:0 55:1 56:1 57:2 
1 1:0 2:0 3:0 4:0 5:0 6:0.74 7:0 8:0 9:0 10:0 11:0 12:0.74 13:1.49 14:0 15:0 16:0 17:0 18:0 19:1.49 20:0 21:1.49 22:0 23:0 24:0 25:0 26:0 27:0 28:0 29:0 30:0 31:0 32:0 33:0 34:0 35:0 36:0 37:0 38:0 39:0 40:0 41:0 42:0 43:0 44:0 45:0.74 46:0 47:0 48:0 49:0 50:0 51:0 52:0 53:0 54:0 55:1.36 56:3 57:34 
1 1:0 2:0 3:0 4:0 5:0 6:0 7:0 8:0 9:0 10:0.8 11:0 12:0 13:0 14:0 15:0 16:1.61 17:0 18:0 19:0.8 20:0 21:0.8 22:0 23:0 24:0 25:0.8 26:0 27:0 28:0 29:0 30:0 31:0.8 32:0 33:0.8 34:0 35:0 36:0 37:0 38:0 39:0 40:0 41:0 42:0 43:0 44:0 45:0 46:0 47:0 48:0 49:0 50:0.089 51:0 52:0 53:0 54:0 55:2.405 56:28 57:89 
1 1:2 2:0 3:0 4:0 5:0 6:0 7:0 8:0 9:0 10:0 11:2 12:2 13:0 14:0 15:0 16:0 17:0 18:0 19:2 20:0 21:8 22:0 23:0 24:0 25:0 26:0 27:0 28:0 29:0 30:0 31:0 32:0 33:0 34:0 35:0 36:0 37:0 38:0 39:0 40:0 41:0 42:0 43:0 44:0 45:0 46:0 47:0 48:0 49:0 50:0 51:0 52:0 53:0 54:0 55:5.888 56:29 57:53 
1 1:0 2:0 3:0.58 4:0 5:0 6:0.58 7:0 8:0 9:0 10:0 11:0 12:0 13:0 14:0 15:0 16:0 17:0 18:0 19:1.76 20:0 21:1.17 22:0 23:0 24:0 25:0 26:0 27:0 28:0 29:0 30:0 31:0 32:0 33:0 34:0 35:0 36:0 37:0 38:0 39:0 40:0 41:0 42:0 43:0 44:0 45:0 46:0 47:0 48:0 49:0 50:0.108 51:0.108 52:0.432 53:0 54:0 55:1 56:1 57:35 
1 1:0.19 2:0 3:0.39 4:0 5:1.24 6:0.13 7:0 8:0.06 9:0.32 10:0 11:0 12:0.45 13:0.26 14:0 15:0 16:0 17:0.13 18:0 19:1.24 20:0 21:0.39 22:0 23:0.06 24:0 25:1.04 26:0 27:0 28:0 29:0 30:0 31:0 32:0 33:0 34:0 35:0 36:0.06 37:0 38:0 39:0 40:0 41:0 42:0 43:0 44:0 45:0.39 46:0 47:0 48:0 49:0 50:0.03 51:0 52:0 53:0.03 54:0 55:1.571 56:42 57:297 
1 1:0 2:0 3:0 4:0 5:0 6:0 7:0 8:0 9:0 10:0 11:0 12:0 13:0 14:0 15:0 16:0 17:0 18:0 19:0 20:0 21:0 22:0 23:0 24:0 25:0 26:0 27:0 28:0 29:0 30:0 31:0 32:0 33:0 34:0 35:0 36:0 37:0 38:0 39:0 40:0 41:0 42:0 43:0 44:0 45:0 46:0 47:0 48:0 49:0 50:0 51:0 52:1.886 53:0 54:0 55:1.375 56:4 57:11 
1 1:0 2:0.55 3:0 4:0 5:0 6:0 7:0 8:0 9:0 10:0 11:0 12:1.67 13:0 14:0 15:0 16:0 17:0 18:0 19:2.79 20:0 21:1.67 22:0 23:0 24:0 25:0 26:0 27:0 28:0 29:0 30:0 31:0 32:0 33:0.55 34:0 35:0 36:0 37:0 38:0 39:0 40:0 41:0 42:0 43:0 44:0 45:0 46:0 47:0 48:0 49:0 50:0.083 51:0 52:0 53:0 54:0 55:1.392 56:4 57:39 
1 1:0 2:0 3:0 4:0 5:0 6:0 7:0 8:0 9:0 10:0 11:0 12:0 13:0 14:0 15:0 16:0 17:0 18:0 19:0 20:0 21:0 22:0 23:0 24:0 25:0 26:0 27:0 28:0 29:0 30:0 31:0 32:0 33:0 34:0 35:0 36:0 37:0 38:0 39:0 40:0 41:0 42:0 43:0 44:0 45:0 46:0 47:0 48:0 49:0 50:0 51:0 52:0 53:0 54:0 55:4.25 56:10 57:17 
0.2342018296396373 1:0 2:0 3:0.36 4:0 5:0.09 6:0 7:0 8:0 9:0 10:0 11:0 12:0 13:0.09 14:0 15:0 16:0 17:0 18:0.18 19:4.24 20:0 21:1.35 22:0 23:0 24:0 25:0 26:0 27:0 28:0 29:0 30:0 31:0 32:0 33:0 34:0 35:0 36:0 37:0 38:0 39:0 40:0 41:0 42:0 43:0 44:0 45:0.09 46:0.99 47:0 48:0 49:0.072 50:0.116 51:0 52:0.188 53:0 54:0 55:1.302 56:9 57:297 
1 1:0 2:0.28 3:0.28 4:0 5:0.86 6:0 7:0 8:0 9:0 10:0.28 11:0.28 12:0 13:0 14:0 15:0 16:0 17:0 18:0 19:2.87 20:0 21:1.72 22:0 23:0 24:0 25:0.28 26:0.28 27:0 28:0 29:0 30:0 31:0 32:0 33:0 34:0 35:0 36:0 37:0 38:0 39:0 40:0 41:0 42:0 43:0 44:0 45:0.57 46:0 47:0 48:0 49:0 50:0.137 51:0 52:0 53:0 54:0 55:1.95 56:15 57:156 
1 1:0.85 2:0.85 3:0 4:0 5:1.7 6:0 7:0 8:0 9:0 10:0.85 11:0 12:0.85 13:0 14:0 15:0 16:0 17:0 18:0 19:0 20:0 21:0.85 22:0 23:0 24:0 25:0 26:0.85 27:0 28:0 29:0 30:0 31:0 32:0 33:0 34:0 35:0 36:0 37:0 38:0 39:0 40:0 41:0 42:0 43:0 44:0 45:0 46:0 47:0 48:0 49:0 50:0.275 51:0 52:0 53:0 54:0 55:1.55 56:5 57:31 
0.3632794121218611 1:0 2:0.35 3:0.35 4:0 5:0.17 6:0 7:0 8:0 9:0.17 10:0.35 11:0 12:1.23 13:0 14:0.88 15:0 16:0 17:0.17 18:0 19:1.41 20:0 21:0.7 22:0 23:0 24:0 25:0.17 26:0 27:0 28:0 29:0 30:0 31:0 32:0 33:0 34:0 35:0 36:0 37:0 38:0 39:0 40:0 41:0 42:0.7 43:0 44:0 45:0.17 46:0 47:0.88 48:0 49:0 50:0.038 51:0 52:0.019 53:0 54:0.095 55:2.059 56:28 57:447 
1 1:0 2:0 3:0.85 4:0 5:1.36 6:0 7:0 8:0 9:0 10:0.17 11:0 12:0.34 13:0.17 14:0 15:0 16:0 17:0 18:0 19:0.85 20:0 21:0 22:0 23:0 24:0 25:0 26:0 27:0 28:0 29:0 30:0 31:0 32:0 33:0 34:0 35:0 36:0 37:0 38:0 39:0 40:0 41:0 42:0 43:0 44:0 45:0 46:0 47:0 48:0 49:0.034 50:0 51:0 52:0 53:0 54:0 55:1.085 56:3 57:89 
1 1:0 2:0 3:0 4:0 5:0 6:0 7:0 8:0 9:0 10:1.96 11:0 12:0 13:0 14:0 15:0 16:0 17:0 18:1.96 19:1.96 20:0 21:0 22:0 23:0 24:0 25:0 26:0 27:0 28:1.96 29:0 30:0 31:0 32:0 33:0 34:0 35:0 36:0 37:0 38:0 39:0 40:0 41:0 42:0 43:0 44:0 45:0 46:0 47:0 48:0 49:0 50:0.373 51:0 52:0 53:0 54:0 55:1.857 56:11 57:26 
1 1:0 2:0 3:0 4:0 5:0 6:0 7:0 8:0 9:0 10:0 11:0 12:0 13:0 14:0 15:0 16:0 17:0 18:0 19:3.33 20:0 21:0 22:0 23:0 24:0 25:0 26:0 27:0 28:0 29:0 30:0 31:0 32:0 33:0 34:0 35:0 36:0 37:0 38:0 39:0 40:0 41:0 42:0 43:0 44:0 45:0 46:0 47:0 48:0 49:0 50:0 51:0 52:0 53:0 54:0 55:1.375 56:4 57:11 
1 1:0 2:0 3:0.34 4:0 5:0.34 6:0 7:0 8:0 9:0 10:0 11:0 12:1.37 13:1.37 14:0 15:0 16:0 17:0 18:0.34 19:2.74 20:0 21:1.03 22:0 23:0 24:0 25:0 26:0 27:0 28:0 29:0 30:0 31:0 32:0 33:0 34:0 35:0 36:0 37:0 38:0 39:0 40:0 41:0 42:0 43:0 44:0 45:0 46:0.34 47:0 48:0 49:0 50:0.232 51:0 52:0.406 53:0 54:0 55:1.425 56:6 57:77 
1 1:0 2:0 3:0 4:0 5:1.05 6:0 7:0 8:0 9:0 10:0 11:0 12:0 13:0 14:0 15:0 16:0 17:0 18:0 19:2.11 20:0 21:2.81 22:0 23:0 24:0 25:0 26:0 27:0.7 28:0 29:0 30:0 31:0 32:0.35 33:0 34:0.35 35:0 36:0 37:0 38:0 39:0 40:0 41:0 42:0 43:0 44:0 45:0 46:0 47:0 48:0 49:0 50:0.047 51:0 52:0 53:0 54:0.047 55:2.232 56:12 57:163 
1 1:0 2:0.13 3:0.66 4:0 5:0 6:0 7:0 8:0 9:0 10:0.13 11:0 12:0.13 13:0 14:0 15:0 16:0.26 17:0 18:0.13 19:2.65 20:0 21:0.39 22:0 23:0 24:0 25:0 26:0 27:0 28:0 29:0 30:0 31:0 32:0 33:0 34:0 35:0 36:0 37:0.26 38:0 39:0 40:0 41:0 42:0 43:0 44:0 45:0.26 46:0 47:0 48:0 49:0.019 50:0.367 51:0 52:0.193 53:0 54:0.038 55:3.122 56:70 57:559 
1 1:2 2:0 3:0 4:0 5:0 6:0 7:0 8:0 9:0 10:0 11:2 12:2 13:0 14:0 15:0 16:0 17:0 18:0 19:2 20:0 21:8 22:0 23:0 24:0 25:0 26:0 27:0 28:0 29:0 30:0 31:0 32:0 33:0 34:0 35:0 36:0 37:0 38:0 39:0 40:0 41:0 42:0 43:0 44:0 45:0 46:0 47:0 48:0 49:0 50:0 51:0 52:0 53:0 54:0 55:5.888 56:29 57:53 
1 1:0 2:0 3:0 4:0 5:0 6:0 7:0 8:0 9:0 10:0 11:0 12:1.4 13:0 14:0 15:0 16:1.4 17:0 18:0 19:0 20:0 21:0 22:0 23:0 24:0 25:0 26:0 27:0 28:0 29:0 30:0 31:0 32:0 33:0 34:0 35:0 36:0 37:1.4 38:0 39:1.4 40:0 41:0 42:0 43:0 44:0 45:0 46:0 47:0 48:0 49:0 50:0 51:0 52:0 53:0 54:0 55:1.393 56:9 57:46 
1 1:0.67 2:0 3:0 4:0 5:1.01 6:0 7:0 8:0 9:0 10:0 11:0 12:0.67 13:0.67 14:0 15:0 16:0 17:0 18:0 19:1.35 20:0 21:1.68 22:0 23:0 24:0 25:0.33 26:0.33 27:0 28:0 29:0 30:0 31:0 32:0 33:0 34:0 35:0 36:0 37:0.67 38:0 39:0 40:0 41:0 42:0.67 43:0 44:0 45:0.33 46:0 47:0 48:0.33 49:0.097 50:0.048 51:0 52:0.048 53:0 54:0 55:2.326 56:22 57:107 
1 1:0 2:0 3:0 4:0 5:0 6:0 7:0 8:0 9:0 10:0 11:0 12:1.61 13:0 14:0 15:0 16:0 17:0 18:0 19:0 20:0 21:1.61 22:0 23:0 24:0 25:0 26:0 27:0 28:0 29:0 30:0 31:0 32:0 33:0 34:0 35:0 36:0 37:1.61 38:0 39:0 40:0 41:0 42:0 43:0 44:0 45:0 46:0 47:0 48:0 49:0 50:0.266 51:0 52:0.533 53:0 54:0 55:4.5 56:31 57:63 
1 1:0 2:0 3:0 4:0 5:2.7 6:0 7:0 8:0 9:0 10:0 11:0 12:0 13:0 14:0 15:0 16:0 17:0 18:0 19:0 20:2.7 21:0 22:0 23:0 24:0 25:0 26:0 27:0 28:0 29:0 30:0 31:0 32:0 33:0 34:0 35:0 36:0 37:0 38:0 39:0 40:0 41:0 42:0 43:0 44:2.7 45:0 46:0 47:0 48:0 49:0 50:0 51:0 52:0 53:0 54:0 55:1.4 56:5 57:14 
1 1:0 2:0 3:0.91 4:0 5:0 6:0.45 7:0 8:0 9:0 10:0 11:0 12:0.45 13:0 14:0 15:0 16:0 17:0 18:0.45 19:2.28 20:0 21:1.36 22:0 23:0 24:0 25:0.45 26:0 27:0 28:0 29:0 30:0 31:0 32:0 33:0 34:0 35:0 36:0 37:0 38:0 39:0 40:0 41:0 42:0 43:0 44:0 45:0 46:0 47:0 48:0 49:0 50:0.416 51:0 52:0.486 53:0 54:0 55:3.782 56:31 57:87 
1 1:0.66 2:0.66 3:0.66 4:0 5:0 6:0 7:0 8:0 9:0 10:1.33 11:0 12:0 13:0 14:0 15:0 16:0.66 17:0 18:0 19:3.33 20:0 21:2.66 22:0 23:0 24:0 25:0 26:0 27:0 28:0 29:0 30:0 31:0 32:0 33:0 34:0 35:0 36:0 37:0 38:0 39:0 40:0 41:0 42:0 43:0 44:0 45:0 46:0 47:0 48:0 49:0 50:0 51:0 52:0.117 53:0 54:0 55:2.487 56:17 57:97 
1 1:0.37 2:0 3:0.63 4:0 5:0.25 6:0.12 7:0 8:0 9:0 10:0 11:0 12:0.12 13:0.12 14:0 15:0 16:0 17:0 18:0.12 19:1.51 20:0 21:0.25 22:0 23:0 24:0 25:0 26:0 27:0 28:0 29:0.12 30:0 31:0 32:0 33:0 34:0 35:0 36:0 37:0 38:0 39:0 40:0 41:0 42:0 43:0 44:0 45:0.37 46:0 47:0 48:0 49:0 50:0.107 51:0 52:0.193 53:0 54:0 55:1.181 56:4 57:104 
1 1:1.26 2:0 3:0 4:0 5:0 6:0 7:0 8:0 9:0 10:0 11:0 12:0 13:0 14:0 15:0 16:0 17:0 18:0 19:1.26 20:0 21:1.26 22:0 23:0 24:0 25:0 26:0 27:0 28:0 29:0 30:0 31:0 32:0 33:0 34:0 35:0 36:0 37:0 38:0 39:0 40:0 41:0 42:0 43:0 44:0 45:0 46:0 47:0 48:0 49:0 50:0 51:0 52:0.178 53:0 54:0 55:1.272 56:3 57:14 
1 1:0 2:0 3:0.2 4:0 5:0.6 6:0.2 7:0 8:0 9:0.1 10:0 11:0 12:0.5 13:0 14:0 15:0 16:0 17:0.1 18:0 19:0.2 20:0 21:0 22:0 23:0 24:0 25:0 26:0 27:0 28:0 29:0 30:0 31:0 32:0 33:0 34:0 35:0 36:0 37:0.1 38:0 39:0 40:0 41:0 42:0 43:0 44:0 45:0 46:0 47:0 48:0 49:0 50:0.049 51:0 52:0 53:0 54:0 55:1.133 56:10 57:263 
0.08220072729915383 1:0 2:14.28 3:0 4:0 5:0 6:0 7:0 8:0 9:0 10:0 11:0 12:0 13:0 14:0 15:0 16:0 17:0 18:0 19:0 20:0 21:0 22:0 23:0 24:0 25:0 26:0 27:0 28:0 29:0 30:0 31:0 32:0 33:0 34:0 35:0 36:0 37:0 38:0 39:0 40:0 41:0 42:0 43:0 44:0 45:0 46:0 47:0 48:0 49:0 50:0 51:0 52:0 53:0 54:0 55:1.8 56:5 57:9 
1 1:0 2:0 3:1.06 4:0 5:0 6:0 7:0 8:0 9:0 10:0 11:0 12:0 13:0 14:0 15:0 16:0 17:0 18:0 19:2.12 20:0 21:2.12 22:0 23:0 24:0 25:0 26:0 27:0 28:0 29:0 30:1.06 31:0 32:0 33:0 34:0 35:0 36:0 37:0 38:0 39:0 40:0 41:1.06 42:0 43:0 44:0 45:0 46:0 47:0 48:0 49:0 50:0 51:0 52:0 53:0 54:0 55:13.333 56:73 57:160 
1 1:0 2:0.25 3:0.75 4:0 5:1 6:0.25 7:0 8:0 9:0 10:0 11:0.25 12:0.25 13:1.25 14:0 15:0 16:0.25 17:0 18:1.25 19:2.51 20:0 21:1.75 22:0 23:0.25 24:0 25:0 26:0 27:0.25 28:0 29:0 30:0 31:0 32:0 33:0 34:0 35:0 36:0 37:0 38:0 39:0 40:0 41:0 42:0 43:0 44:0 45:0 46:0 47:0 48:0 49:0 50:0 51:0 52:0.042 53:0 54:0 55:1.204 56:7 57:118 
1 1:0 2:0 3:0 4:0 5:0 6:0.3 7:0 8:0 9:0 10:0 11:0.3 12:2.42 13:0 14:0 15:0 16:0.3 17:0 18:0.9 19:3.63 20:0 21:0.6 22:0 23:0 24:0 25:0 26:0 27:0 28:0 29:0 30:0 31:0 32:0 33:0 34:0 35:0 36:0 37:0 38:0 39:0 40:0 41:0 42:0 43:0 44:0 45:0 46:0 47:0 48:0 49:0 50:0 51:0 52:0.087 53:0 54:0 55:2.74 56:64 57:148 
1 1:0 2:0 3:0.37 4:0 5:0.28 6:0.28 7:0 8:0 9:0.09 10:0 11:0 12:0.18 13:0.28 14:0 15:0 16:0 17:0 18:0.46 19:2.71 20:0 21:0.93 22:0 23:0 24:0 25:0 26:0 27:0 28:0 29:0 30:0 31:0 32:0 33:0 34:0 35:0 36:0 37:0 38:0 39:0 40:0 41:0 42:0 43:0 44:0 45:0.56 46:0.09 47:0.09 48:0 49:0 50:0.017 51:0 52:0 53:0 54:0 55:1.024 56:3 57:128 
1 1:0.22 2:0 3:0.22 4:0 5:0.67 6:0 7:0 8:0 9:0.22 10:0 11:0 12:0 13:0.22 14:1.34 15:0 16:0 17:0.44 18:0 19:0.67 20:0 21:1.56 22:0 23:0 24:0 25:0.44 26:0 27:0 28:0 29:0 30:0 31:0 32:0 33:0 34:0 35:0 36:0 37:0 38:0 39:0 40:0 41:0 42:2.23 43:0 44:0 45:0 46:0 47:0 48:0 49:0 50:0.156 51:0 52:0.134 53:0 54:0.156 55:3.08 56:121 57:693 
1 1:0 2:0 3:0 4:0 5:0 6:0 7:0 8:0 9:0 10:0 11:0 12:0 13:0 14:0 15:0 16:0 17:0 18:0 19:0 20:0 21:0 22:0 23:0 24:0 25:0 26:0 27:0 28:0 29:0 30:0 31:0 32:0 33:0 34:0 35:0 36:0 37:0 38:0 39:0 40:0 41:0 42:0 43:0 44:0 45:0 46:0 47:0 48:0 49:0 50:0.862 51:0 52:0.862 53:0 54:0 55:1 56:1 57:3 
1 1:0.32 2:0 3:0 4:0 5:0.32 6:0 7:0 8:0 9:0 10:0 11:0 12:0.32 13:0 14:0 15:0 16:0 17:0 18:0 19:0.96 20:0 21:2.56 22:0 23:0 24:0 25:0 26:0 27:0.64 28:0 29:0 30:0 31:0 32:0 33:0 34:0 35:0 36:0 37:0 38:0 39:0 40:0 41:0 42:0 43:0 44:0 45:0 46:0 47:0 48:0 49:0 50:0.234 51:0 52:0.058 53:0 54:0 55:1.068 56:3 57:47 
1 1:0 2:0.23 3:0 4:0 5:0.23 6:0 7:0 8:0 9:0 10:0.47 11:0 12:0.23 13:0 14:1.67 15:0 16:0 17:0 18:0 19:1.19 20:0 21:0 22:0 23:0 24:0 25:0.47 26:0 27:0.23 28:0 29:0 30:0 31:0.23 32:0 33:0 34:0 35:0.23 36:0 37:0 38:0 39:0 40:0 41:0 42:0 43:0 44:0 45:0 46:0 47:0 48:0 49:0 50:0 51:0 52:0 53:0.158 54:0 55:10.036 56:235 57:1094 
1 1:2 2:0 3:0 4:0 5:0 6:0 7:0 8:0 9:0 10:0 11:2 12:2 13:0 14:0 15:0 16:0 17:0 18:0 19:2 20:0 21:8 22:0 23:0 24:0 25:0 26:0 27:0 28:0 29:0 30:0 31:0 32:0 33:0 34:0 35:0 36:0 37:0 38:0 39:0 40:0 41:0 42:0 43:0 44:0 45:0 46:0 47:0 48:0 49:0 50:0 51:0 52:0 53:0 54:0 55:5.888 56:29 57:53 
1 1:0 2:2.6 3:0 4:0 5:0 6:0 7:0 8:0 9:0 10:0 11:0 12:0 13:0 14:0 15:0 16:0 17:0 18:0 19:3.47 20:0 21:1.73 22:0 23:0 24:0 25:0 26:0 27:0 28:0 29:0 30:0 31:0 32:0 33:0 34:0 35:0 36:0 37:0 38:0 39:0 40:0 41:0 42:0 43:0 44:0 45:0 46:0 47:0 48:0 49:0 50:0.154 51:0 52:0.773 53:0 54:0 55:1 56:1 57:17 
1 1:0 2:0 3:0.6 4:0 5:0 6:0 7:0 8:0 9:0 10:0 11:0 12:0.43 13:0.08 14:0 15:0 16:0 17:0 18:0 19:3.02 20:0 21:1.03 22:0 23:0 24:0 25:0 26:0 27:0 28:0 29:0 30:0 31:0 32:0 33:0 34:0 35:0 36:0 37:0 38:0 39:0.08 40:0 41:0 42:0 43:0 44:0 45:0.51 46:0 47:0 48:0 49:0 50:0.083 51:0 52:0.099 53:0 54:0 55:1.329 56:18 57:214 
1 1:0 2:0 3:0 4:0 5:0 6:0 7:0 8:0 9:0 10:0 11:0 12:0 13:0 14:0 15:0 16:0 17:0 18:0 19:1.57 20:0 21:0 22:0 23:0 24:0 25:0 26:0 27:0 28:0 29:0 30:0 31:0 32:0 33:0 34:0 35:0 36:0.78 37:0 38:0 39:0 40:0 41:0 42:0 43:0 44:0 45:0 46:0 47:0 48:0 49:0 50:0 51:0 52:0 53:0 54:0 55:1 56:1 57:16 
1 1:0 2:0 3:0 4:0 5:0 6:0.27 7:0 8:0 9:0 10:0.27 11:0 12:0.27 13:0 14:0 15:0 16:0.27 17:0 18:0 19:2.18 20:0 21:2.73 22:0 23:0 24:0 25:0.27 26:0 27:0 28:0 29:0 30:0 31:0.27 32:0 33:0 34:0 35:0 36:0 37:0 38:0 39:0 40:0 41:0 42:0 43:0 44:0 45:0 46:0 47:0 48:0 49:0 50:0 51:0 52:0 53:0 54:0 55:2.593 56:18 57:166 
1 1:0 2:0 3:1.88 4:0 5:0.94 6:0 7:0 8:0 9:0 10:0 11:0 12:0 13:0 14:0 15:0 16:0 17:0 18:0 19:2.83 20:0 21:0 22:0 23:0 24:0 25:0 26:0 27:0 28:0 29:0 30:0 31:0 32:0 33:0 34:0 35:0 36:0 37:0 38:0 39:0 40:0 41:0 42:0 43:0 44:0 45:0.94 46:0 47:0 48:0 49:0 50:0 51:0 52:0.756 53:0 54:0 55:1 56:1 57:22 
1 1:0 2:0 3:1.63 4:0 5:0 6:0 7:0 8:0 9:0 10:0 11:0 12:1.63 13:0 14:0 15:0 16:1.63 17:0 18:0 19:1.63 20:0 21:1.63 22:0 23:0 24:0 25:0 26:0 27:0 28:0 29:0 30:0 31:0 32:0 33:0 34:0 35:0 36:0 37:0 38:0 39:0 40:0 41:0 42:0 43:0 44:0 45:0 46:0 47:0 48:0 49:0 50:0 51:0 52:0 53:0 54:0 55:1.181 56:3 57:13 
1 1:0 2:0 3:0 4:0 5:0 6:0 7:0 8:0 9:0 10:0 11:0 12:0 13:0 14:0 15:0 16:0 17:0 18:0 19:0 20:0 21:0 22:0 23:0 24:0 25:0 26:0 27:0 28:0 29:0 30:0 31:0 32:0 33:0 34:0 35:0 36:0 37:0 38:0 39:0 40:0 41:0 42:0 43:0 44:0 45:0 46:0 47:0 48:0 49:0 50:0 51:0 52:0 53:0 54:0 55:2.09 56:7 57:23 
1 1:0 2:0 3:0 4:0 5:0 6:0 7:0 8:0 9:0 10:0 11:0 12:0 13:0 14:0 15:0 16:2.32 17:0 18:0 19:2.32 20:0 21:0 22:0 23:0 24:0 25:0 26:0 27:0 28:0 29:0 30:0 31:0 32:0 33:0 34:0 35:0 36:0 37:0 38:0 39:0 40:0 41:0 42:2.32 43:0 44:0 45:0 46:0 47:0 48:0 49:0.416 50:0.416 51:0 52:0 53:0 54:0 55:1 56:1 57:9 
1 1:0 2:0 3:0 4:0 5:0 6:0 7:0 8:0 9:0 10:0 11:0 12:0.33 13:0 14:0 15:0 16:0 17:0 18:0 19:4.29 20:0 21:2.64 22:0 23:0 24:0 25:0 26:0 27:0 28:0 29:0 30:0 31:0 32:0 33:0 34:0 35:0 36:0 37:0 38:0 39:0 40:0 41:0 42:0 43:0 44:0 45:0.66 46:0 47:0 48:0 49:0 50:0.058 51:0 52:0 53:0 54:0 55:1.153 56:3 57:15 
1 1:0 2:0 3:0.21 4:0 5:0 6:0.21 7:0 8:0 9:0 10:0.21 11:0.21 12:1.28 13:0 14:0 15:0 16:0 17:0.21 18:0 19:1.28 20:0 21:0.64 22:0 23:0 24:0 25:0 26:0 27:0 28:0 29:0 30:0 31:0 32:0 33:0 34:0 35:0 36:0 37:0.64 38:0 39:0 40:0 41:0 42:0 43:0 44:0 45:0 46:0 47:0 48:0.64 49:0 50:0 51:0 52:0 53:0.097 54:0 55:2.451 56:55 57:255 
1 1:0 2:0 3:0 4:0 5:0 6:0 7:0 8:0 9:0 10:0 11:0 12:0 13:0 14:0 15:0 16:1.49 17:0 18:0 19:2.98 20:0 21:0 22:0 23:0 24:0 25:0 26:0 27:1.49 28:0 29:0 30:0 31:0 32:0 33:0 34:0 35:0 36:0 37:0 38:0 39:0 40:0 41:0 42:0 43:0 44:0 45:0 46:0 47:0 48:0 49:0 50:0 51:0 52:0 53:0 54:0 55:1.761 56:5 57:37 
1 1:0 2:0 3:0 4:0 5:0 6:0 7:0 8:0 9:0 10:0 11:0 12:0.86 13:0.86 14:0 15:0 16:0 17:0 18:0 19:2.58 20:0 21:0.86 22:0 23:0 24:0 25:0 26:0 27:0 28:0 29:0 30:0 31:0 32:0 33:0 34:0 35:0 36:0 37:0.86 38:0 39:0 40:0 41:0 42:0 43:0 44:0 45:0.86 46:0 47:0 48:0 49:0 50:0 51:0 52:0.152 53:0 54:0 55:2.166 56:14 57:52 
1 1:0 2:0 3:0 4:0 5:0.92 6:0 7:0 8:0 9:0 10:0 11:0 12:0.92 13:0 14:0 15:0 16:0 17:0 18:0 19:0.92 20:0 21:0.92 22:0 23:0 24:0 25:0 26:0 27:0 28:0 29:0 30:0 31:0 32:0 33:0 34:0 35:0 36:0 37:0 38:0 39:0 40:0 41:0 42:0 43:0 44:0 45:0 46:0 47:0 48:0 49:0 50:0 51:0 52:0 53:0 54:0 55:1.5 56:7 57:33 
1 1:0 2:0.8 3:0 4:0 5:0.6 6:0 7:0 8:0.2 9:0 10:0.2 11:0 12:0 13:0 14:0 15:0 16:1.8 17:0 18:2.2 19:1.8 20:0 21:2.81 22:0 23:0 24:0 25:0 26:0 27:0 28:0 29:0 30:0 31:0 32:0 33:0 34:0 35:0 36:0 37:0 38:0 39:0 40:0 41:0.2 42:0 43:0 44:0 45:0.2 46:0.2 47:0 48:0 49:0 50:0 51:0 52:0.06 53:0 54:0 55:2.55 56:43 57:227 
1 1:0 2:0 3:0 4:0 5:0 6:0.57 7:0 8:0 9:0 10:0 11:0 12:0 13:0 14:0 15:0 16:0 17:0 18:0 19:2.31 20:0 21:2.89 22:0 23:0 24:0 25:0 26:0 27:0 28:0 29:0 30:0 31:0 32:0 33:0 34:0 35:0 36:0 37:0.57 38:0 39:0 40:0 41:0 42:0 43:0 44:0 45:1.73 46:0.57 47:0 48:0 49:0 50:0 51:0 52:0 53:0 54:0 55:1.645 56:5 57:51 
1 1:0 2:0 3:0.16 4:0 5:0.64 6:0 7:0 8:0.16 9:0 10:0 11:0 12:1.91 13:0 14:0 15:0 16:0.16 17:0 18:0 19:3.04 20:0 21:1.76 22:0 23:0 24:0 25:0 26:0.32 27:0.32 28:0 29:0 30:0 31:0.16 32:0 33:0 34:0 35:0 36:0.16 37:0 38:0 39:0 40:0.16 41:0 42:0 43:0 44:0 45:0.32 46:0 47:0 48:0 49:0 50:0.055 51:0 52:0 53:0.055 54:0 55:1.798 56:7 57:196 
1 1:0 2:0 3:0 4:0 5:5 6:0 7:0 8:0 9:0 10:0 11:0 12:0 13:0 14:0 15:0 16:0 17:0 18:0 19:0 20:0 21:0 22:0 23:0 24:0 25:0 26:0 27:0 28:0 29:0 30:0 31:0 32:0 33:0 34:0 35:0 36:0 37:0 38:0 39:0 40:0 41:0 42:0 43:0 44:0 45:0 46:0 47:0 48:0 49:0 50:0 51:0 52:0 53:0 54:0 55:3.5 56:9 57:21 
1 1:0 2:0 3:0 4:0.31 5:0.94 6:0 7:0 8:0.31 9:0 10:0.63 11:0 12:1.26 13:0 14:0 15:0 16:0 17:0 18:0 19:0.94 20:0 21:1.26 22:0 23:0 24:0 25:0 26:0 27:0 28:0.63 29:0 30:0 31:0 32:0 33:0 34:0 35:0 36:0.31 37:0 38:0 39:0 40:0 41:0 42:0 43:0 44:0 45:0 46:0 47:0 48:0 49:0 50:0.037 51:0 52:0.074 53:0 54:0 55:3.904 56:39 57:246 
1 1:0 2:0 3:1.2 4:0 5:0 6:0 7:0 8:0 9:0 10:0 11:0 12:1.2 13:0 14:0 15:0 16:0 17:0 18:0 19:6.02 20:0 21:0 22:0 23:0 24:0 25:0 26:0 27:0 28:0 29:0 30:0 31:0 32:0 33:0 34:0 35:0 36:0 37:0 38:0 39:2.4 40:0 41:1.2 42:0 43:0 44:0 45:1.2 46:1.2 47:0 48:0 49:0.197 50:0 51:0 52:7.707 53:0 54:0 55:3.4 56:15 57:51 
1 1:0 2:0 3:0 4:0 5:6.25 6:0 7:0 8:0 9:0 10:0 11:0 12:0 13:0 14:0 15:0 16:0 17:0 18:0 19:0 20:0 21:0 22:0 23:0 24:0 25:0 26:0 27:0 28:0 29:0 30:0 31:0 32:0 33:0 34:0 35:0 36:0 37:0 38:0 39:0 40:0 41:0 42:0 43:0 44:0 45:0 46:0 47:0 48:0 49:0 50:0 51:0 52:0 53:0 54:0 55:1.5 56:2 57:3 
1 1:0 2:0 3:0 4:0 5:0 6:0 7:0 8:0 9:0 10:0 11:0 12:1.4 13:0 14:0 15:0 16:0 17:0.7 18:0 19:1.4 20:0 21:1.4 22:0 23:0 24:0 25:0 26:0 27:0.7 28:0 29:0 30:0 31:0.7 32:0 33:0 34:0 35:1.4 36:0 37:0 38:0 39:0 40:2.11 41:0 42:0 43:0 44:0 45:0 46:0 47:0 48:0 49:0 50:0.267 51:0.066 52:0 53:0 54:0 55:17.952 56:200 57:377 
1 1:0 2:0 3:0.32 4:0 5:0 6:0.16 7:0 8:0 9:0 10:0 11:0 12:0.64 13:0 14:0 15:0 16:0 17:0.48 18:0 19:0.96 20:0 21:0.96 22:0 23:0 24:0 25:0.48 26:0 27:0 28:0 29:0 30:0 31:0 32:0 33:0 34:0 35:0 36:0.16 37:0 38:0 39:0 40:0 41:0 42:0 43:0 44:0 45:0 46:0 47:0 48:0 49:0.021 50:0.105 51:0 52:0.021 53:0.063 54:0.063 55:3.789 56:39 57:432 
1 1:0.09 2:0.04 3:0.04 4:0 5:0.04 6:0 7:0 8:0 9:0.66 10:0 11:0 12:0.33 13:0.04 14:0 15:0 16:0 17:0 18:0.04 19:0.19 20:0 21:0.14 22:0 23:0 24:0 25:0.62 26:0.66 27:0.04 28:0 29:0 30:0 31:0 32:0 33:0.14 34:0 35:0 36:0.04 37:0 38:0 39:0 40:0 41:0 42:0 43:0 44:0.09 45:0 46:0 47:0 48:0.04 49:0.145 50:0.152 51:0.053 52:0 53:0.013 54:0 55:3.685 56:85 57:1463 
1 1:0 2:0 3:0 4:0 5:0.24 6:0.49 7:0 8:0 9:0 10:0.49 11:0 12:0.24 13:0 14:0 15:0 16:0 17:0 18:0 19:0.99 20:0 21:0.49 22:0 23:0 24:0 25:0.74 26:0 27:0 28:0.74 29:0 30:0 31:0.49 32:0 33:0 34:0 35:0.74 36:0 37:0 38:0 39:0 40:0 41:0 42:0 43:0 44:0 45:0 46:0 47:0 48:0 49:0 50:0.054 51:0 52:0 53:0.027 54:0 55:4.634 56:157 57:380 
1 1:0 2:0 3:0.22 4:0 5:0 6:0 7:0 8:0 9:0 10:0 11:0 12:0.22 13:0 14:0 15:0 16:0 17:0 18:0 19:1.11 20:0 21:0.22 22:7.12 23:0 24:0 25:0 26:0 27:0 28:0 29:0 30:0 31:0 32:0 33:0 34:0 35:0 36:0 37:0 38:0 39:0.22 40:0 41:0 42:0 43:0 44:0 45:0 46:0 47:0 48:0 49:3.125 50:0 51:0 52:0.24 53:0 54:0.28 55:5.397 56:43 57:448 
1 1:0 2:0 3:0 4:0 5:0 6:0 7:0 8:0 9:0 10:2.5 11:0 12:0 13:0 14:0 15:0 16:0 17:0 18:0 19:2.5 20:0 21:2.5 22:0 23:0 24:0 25:0 26:0 27:0 28:0 29:0 30:0 31:0 32:0 33:0 34:0 35:0 36:0 37:0 38:0 39:0 40:0 41:0 42:0 43:0 44:0 45:0 46:0 47:0 48:0 49:0 50:0 51:0 52:0 53:0 54:0 55:1.416 56:3 57:17 
1 1:0 2:0.34 3:0 4:0 5:0.68 6:0 7:0.68 8:0 9:0 10:0.34 11:0.34 12:0 13:0 14:0 15:0 16:0.34 17:0 18:1.36 19:3.42 20:0 21:2.73 22:0 23:0 24:0 25:0 26:0 27:0 28:0 29:0 30:0 31:0 32:0 33:0.34 34:0 35:0 36:0 37:0 38:0 39:0 40:0 41:0 42:0 43:0 44:0 45:0 46:0.34 47:0 48:0 49:0 50:0 51:0 52:0.048 53:0.048 54:0 55:1.405 56:15 57:97 
1 1:0 2:0 3:0 4:0 5:0 6:0 7:0 8:0.67 9:0 10:0 11:0 12:1.35 13:0 14:0 15:0 16:0.67 17:0 18:0 19:4.05 20:0 21:2.02 22:0 23:0 24:0 25:0.67 26:0 27:0 28:0 29:0 30:0 31:0 32:0 33:0 34:0 35:0.67 36:0 37:0 38:0 39:0 40:0 41:0 42:0 43:0 44:0 45:0.67 46:0 47:0 48:0 49:0 50:0.386 51:0 52:0 53:0 54:0 55:3.27 56:19 57:121 
1 1:0 2:0 3:0 4:0 5:0 6:0.78 7:0 8:0 9:0 10:0 11:0 12:0 13:0 14:0 15:0 16:0 17:0 18:0.78 19:0 20:0 21:0.78 22:0 23:0 24:0 25:0 26:0 27:0 28:0 29:0 30:0 31:0 32:0 33:0 34:0 35:0 36:0 37:0 38:0 39:0 40:0 41:0 42:0 43:0 44:0 45:0 46:0 47:0 48:0 49:0 50:5.277 51:0 52:0.263 53:0 54:0 55:1.047 56:2 57:22 
1 1:2 2:0 3:0 4:0 5:0 6:0 7:0 8:0 9:0 10:0 11:2 12:2 13:0 14:0 15:0 16:0 17:0 18:0 19:2 20:0 21:8 22:0 23:0 24:0 25:0 26:0 27:0 28:0 29:0 30:0 31:0 32:0 33:0 34:0 35:0 36:0 37:0 38:0 39:0 40:0 41:0 42:0 43:0 44:0 45:0 46:0 47:0 48:0 49:0 50:0 51:0 52:0 53:0 54:0 55:5.888 56:29 57:53 
1 1:0.05 2:0 3:0.05 4:0 5:0.3 6:0 7:0 8:0 9:0.51 10:0 11:0 12:0.15 13:0 14:0 15:0 16:0 17:0 18:0.05 19:0.2 20:0 21:0.15 22:0 23:0 24:0 25:0.67 26:0.72 27:0.05 28:0 29:0 30:0 31:0 32:0 33:0.2 34:0 35:0 36:0 37:0.46 38:0 39:0 40:0 41:0 42:0 43:0 44:0.1 45:0 46:0 47:0 48:0 49:0.209 50:0.158 51:0.05 52:0 53:0.014 54:0 55:3.764 56:85 57:1423 
1 1:0 2:0 3:0.36 4:0 5:0.72 6:0 7:0 8:0 9:0 10:0 11:0 12:0.36 13:0.18 14:0 15:0 16:0.36 17:0 18:0 19:1.44 20:0 21:0.36 22:0 23:0 24:0 25:0.36 26:0.9 27:0 28:0 29:0 30:0 31:0 32:0 33:0 34:0 35:0 36:0 37:0.36 38:0 39:0 40:0 41:0 42:0 43:0.18 44:0 45:0.18 46:0 47:0 48:0 49:0.026 50:0 51:0 52:0.107 53:0 54:0 55:2.988 56:51 57:263 
1 1:0 2:0 3:0 4:0 5:0 6:0 7:0 8:0 9:0 10:0 11:0 12:0 13:0 14:0 15:0 16:0 17:0 18:0 19:8.33 20:0 21:0 22:0 23:0 24:0 25:0 26:0 27:0 28:0 29:0 30:0 31:0 32:0 33:0 34:0 35:0 36:0 37:0 38:0 39:0 40:0 41:0 42:0 43:0 44:0 45:0 46:0 47:0 48:0 49:0 50:0 51:0 52:0 53:0 54:0 55:1 56:1 57:8 
1 1:0 2:0 3:2.27 4:0 5:0 6:0 7:0 8:0 9:0 10:0 11:0 12:2.27 13:0 14:0 15:0 16:1.13 17:0 18:1.13 19:2.27 20:0 21:0 22:0 23:0 24:0 25:0 26:0 27:0 28:0 29:0 30:0 31:0 32:0 33:0 34:0 35:0 36:0 37:0 38:0 39:0 40:0 41:0 42:0 43:0 44:0 45:0 46:1.13 47:0 48:0 49:0 50:0.143 51:0 52:0 53:0 54:0 55:8.761 56:77 57:184 
1 1:0 2:0 3:0 4:0 5:0 6:0 7:0 8:0 9:0 10:0 11:0 12:0 13:0 14:0 15:0 16:0 17:0 18:0 19:0 20:0 21:0 22:0 23:0 24:0 25:0 26:0 27:0 28:0 29:0 30:0 31:0 32:0 33:0 34:0 35:0 36:0 37:0 38:0 39:0 40:0 41:0 42:0 43:0 44:0 45:0 46:0 47:0 48:0 49:0 50:0 51:0 52:0 53:0 54:0 55:2.5 56:4 57:5 
1 1:0 2:0.56 3:0 4:0 5:0.56 6:0 7:0 8:0 9:0 10:0 11:0 12:1.7 13:0 14:0 15:0 16:0 17:1.7 18:0 19:1.13 20:0 21:0 22:0 23:0 24:0 25:0 26:0 27:0 28:0 29:1.13 30:0.56 31:0 32:0 33:0 34:0 35:0 36:0 37:0 38:0 39:0.56 40:0 41:0 42:0 43:0 44:0 45:0 46:0 47:0 48:0 49:0 50:0 51:0 52:0 53:0 54:0 55:2.028 56:13 57:71 
1 1:0 2:0 3:0 4:0 5:0 6:0 7:0 8:0 9:0 10:0 11:0 12:0 13:0 14:0.8 15:0 16:0 17:0 18:0 19:5.6 20:0 21:4 22:0 23:0 24:1.6 25:0 26:0 27:0 28:0 29:0 30:0 31:0 32:0 33:0 34:0 35:0 36:0 37:0 38:0 39:0 40:0 41:0 42:0 43:0 44:0 45:0 46:0 47:0 48:0 49:0.122 50:0.244 51:0 52:0 53:0 54:0 55:1.909 56:6 57:21 
1 1:0 2:0 3:0 4:0 5:0 6:0 7:0 8:0 9:0 10:0 11:0 12:0 13:0 14:0 15:0 16:0 17:0 18:0 19:1.55 20:0 21:1.16 22:0 23:0 24:0 25:0 26:0 27:0 28:0 29:0 30:0 31:0 32:0 33:0 34:0 35:0 36:0 37:0 38:0 39:0 40:0 41:1.16 42:0 43:0 44:0 45:0 46:0 47:0 48:0 49:0 50:0.07 51:0 52:0 53:0 54:0 55:1.541 56:4 57:37 
1 1:0 2:1.25 3:0 4:0 5:0 6:0 7:0 8:0 9:0 10:0 11:0 12:2.81 13:0 14:0 15:0 16:0 17:0 18:1.56 19:0.93 20:0 21:0.31 22:0 23:0 24:0 25:0 26:0 27:0 28:0 29:0 30:0 31:0 32:0.31 33:0 34:0 35:0 36:0.31 37:0 38:0 39:0 40:0 41:0 42:0 43:0 44:0 45:0 46:0 47:0 48:0 49:0 50:0.164 51:0 52:0.109 53:0.054 54:0 55:2.193 56:18 57:136 
1 1:0 2:0 3:0 4:0 5:0 6:0 7:0 8:0 9:0 10:0 11:0 12:0 13:0 14:0 15:0 16:0 17:0 18:0 19:0.7 20:0 21:0 22:0 23:0 24:0 25:0 26:0 27:0 28:0 29:0 30:0 31:0 32:0 33:0 34:0 35:0 36:0 37:0 38:0 39:0 40:0 41:0 42:0 43:0 44:0 45:0 46:0 47:0 48:0 49:0 50:0.191 51:0 52:0 53:0.095 54:0.095 55:1.688 56:11 57:103 
1 1:0 2:0 3:0 4:0 5:0.7 6:0 7:0 8:0.88 9:0 10:0.17 11:0 12:0.52 13:0.17 14:0 15:0 16:0 17:0 18:0 19:2.46 20:0 21:1.93 22:0 23:0 24:0 25:0.52 26:0.35 27:0.35 28:0.17 29:0.17 30:0.17 31:0.17 32:0.17 33:0.17 34:0.17 35:0.17 36:0.17 37:0.17 38:0 39:0 40:0.17 41:0 42:0 43:0 44:0 45:0.17 46:0 47:0 48:0 49:0 50:0.086 51:0 52:0.057 53:0 54:0 55:1.472 56:15 57:162 
1 1:0 2:0 3:0.78 4:0 5:0 6:0 7:0 8:0 9:0 10:0 11:0 12:0.78 13:0 14:0 15:0 16:0 17:0 18:0 19:1.56 20:0 21:0 22:0 23:0 24:0 25:0 26:0 27:0 28:0 29:0 30:0 31:0 32:0 33:0 34:0 35:0 36:0 37:0 38:0 39:0 40:0 41:0 42:0 43:0 44:0 45:0 46:0 47:0 48:0.78 49:0.145 50:0 51:0 52:0.725 53:0 54:0 55:1.187 56:4 57:19 
1 1:0 2:0.22 3:0 4:0 5:0.22 6:0 7:0 8:0.22 9:0 10:0.45 11:0 12:0.22 13:0 14:1.59 15:0 16:0 17:0.22 18:0 19:1.36 20:0 21:0 22:0 23:0 24:0 25:0.68 26:0 27:0.22 28:0 29:0 30:0 31:0.22 32:0 33:0 34:0 35:0.22 36:0 37:0.45 38:0 39:0 40:0 41:0 42:0 43:0 44:0 45:0 46:0 47:0 48:0 49:0 50:0.053 51:0 52:0 53:0 54:0 55:4.964 56:152 57:705 
1 1:0.02 2:0 3:0.15 4:0 5:0.24 6:0.31 7:0 8:0.04 9:0.22 10:0 11:0.02 12:0.08 13:0 14:0 15:0.02 16:0 17:0 18:0.02 19:0.08 20:0 21:0.06 22:0 23:0 24:0 25:0.44 26:0.47 27:0.02 28:0 29:0 30:0 31:0 32:0 33:0.11 34:0 35:0 36:0 37:0 38:0.02 39:0 40:0 41:0 42:0.02 43:0 44:0 45:0 46:0 47:0 48:0 49:0.185 50:0.15 51:0.044 52:0 53:0.006 54:0 55:2.838 56:52 57:2078 
1 1:0 2:0 3:1.18 4:0 5:0.16 6:0 7:0 8:0 9:0 10:0.16 11:0 12:0.16 13:0.16 14:0 15:0 16:0 17:0.16 18:0 19:2.88 20:0 21:0.5 22:0 23:0 24:0 25:0 26:0 27:0 28:0 29:0 30:0 31:0 32:0 33:0 34:0 35:0 36:0 37:0 38:0 39:0 40:0 41:0 42:0 43:0 44:0 45:0.33 46:0 47:0 48:0 49:0.031 50:0.374 51:0 52:0.561 53:0 54:0 55:1.462 56:10 57:136 
1 1:0 2:0 3:0.91 4:0 5:0 6:0 7:0 8:0 9:0 10:0 11:0 12:0.91 13:0.91 14:0 15:0 16:0 17:0 18:0 19:5.5 20:0 21:0.91 22:0 23:0 24:1.83 25:0 26:0 27:0 28:0 29:0 30:0 31:0 32:0 33:0 34:0 35:0 36:0 37:0 38:0 39:0 40:0 41:0 42:0 43:0 44:0 45:0.91 46:0.91 47:0 48:0 49:0 50:0 51:0 52:0.13 53:0 54:0 55:2.457 56:47 57:86 
1 1:0 2:0 3:0.43 4:0 5:0 6:0 7:0 8:0 9:0 10:0 11:0 12:3.94 13:0 14:0 15:0 16:0 17:0 18:0 19:2.63 20:0 21:1.31 22:0 23:0 24:0 25:0 26:0 27:0 28:0 29:0 30:0 31:0 32:0 33:0 34:0 35:0 36:0 37:0 38:0 39:0 40:0 41:0 42:0 43:0 44:0 45:0 46:0 47:0 48:0 49:0 50:0 51:0 52:0 53:0 54:0 55:1.314 56:5 57:46 
0.7223430777830626 1:0 2:2.5 3:0 4:0 5:0 6:0 7:0 8:0 9:0 10:0 11:0 12:0 13:0 14:0 15:0 16:0 17:0 18:0 19:5 20:0 21:2.5 22:0 23:0 24:0 25:0 26:0 27:0 28:0 29:0 30:0 31:0 32:0 33:0 34:0 35:0 36:0 37:0 38:0 39:0 40:0 41:0 42:0 43:0 44:0 45:2.5 46:0 47:0 48:0 49:0 50:0 51:0 52:0 53:0 54:0 55:1.142 56:2 57:8 
1 1:0 2:0 3:1.61 4:0 5:0 6:0 7:0 8:0 9:1.61 10:0 11:0 12:0 13:0 14:0 15:0 16:0 17:0 18:0 19:4.83 20:0 21:0 22:0 23:0 24:0 25:0 26:0 27:0 28:0 29:0 30:3.22 31:0 32:0 33:0 34:0 35:0 36:0 37:0 38:0 39:0 40:0 41:0 42:0 43:0 44:0 45:0 46:0 47:0 48:0 49:0 50:0 51:0 52:0 53:0 54:0 55:1.769 56:8 57:23 
1 1:0.21 2:0 3:0.21 4:0.21 5:0.63 6:0 7:0 8:0 9:0 10:0 11:0.42 12:0 13:0.21 14:0 15:0 16:0.84 17:0 18:0.42 19:1.9 20:0 21:0 22:0 23:0.21 24:0 25:0 26:0 27:0 28:0 29:0 30:0 31:0 32:0 33:0 34:0 35:0 36:0 37:0.21 38:0 39:0 40:0 41:0 42:0 43:0 44:0 45:0 46:0 47:0 48:0 49:0 50:0.031 51:0 52:0.374 53:0.062 54:0 55:2.892 56:71 57:405 
